{"type":"NeuralNetwork","sizes":[256,128,3],"layers":[{"weights":[],"biases":[]},{"weights":[[0.01538017950952053,0.0797373577952385,0.018776027485728264,0.0751594677567482,0.1613633781671524,-0.08260579407215118,0.025636063888669014,-0.9147816300392151,0.10112044960260391,0.047057706862688065,-3.761054754257202,-0.030359799042344093,2.1040761470794678,-0.04223295673727989,0.022016126662492752,0.004113464150577784,-0.05903565138578415,0.10994367301464081,-0.024292711168527603,0.021123670041561127,-0.13825947046279907,2.886859655380249,0.0116617726162076,-4.955872535705566,-0.16896992921829224,-0.07311414182186127,-0.15346616506576538,0.07592592388391495,0.8008925318717957,-0.03571930155158043,0.15992432832717896,0.12358615547418594,0.1099364385008812,0.08215483278036118,0.049846407026052475,0.04477447271347046,0.07226074486970901,0.15986694395542145,-0.09632134437561035,-0.1717982441186905,-0.13804404437541962,-0.17655394971370697,-0.11327623575925827,-0.12081460654735565,0.1724403351545334,-0.03388001024723053,-0.0022862921468913555,-0.05671795457601547,-0.1817413717508316,0.1320945918560028,0.18820463120937347,0.16892707347869873,0.10490904003381729,-0.24304232001304626,-0.04897891730070114,0.10546010732650757,-0.1335882842540741,0.16160869598388672,0.03772665560245514,0.07294563204050064,-0.4777255356311798,0.15871329605579376,0.1421222984790802,0.059025365859270096,-0.1914193332195282,0.18029819428920746,0.16343551874160767,-0.1466880738735199,0.11028657108545303,0.05391141399741173,0.08988379687070847,-0.12900231778621674,-0.0396636500954628,0.12668192386627197,0.18172608315944672,0.18058757483959198,0.04630649462342262,-0.014645715244114399,0.01627470925450325,0.1596807986497879,0.005054852459579706,-0.0015715546905994415,0.1647762805223465,-0.051698312163352966,0.01632300578057766,-0.12953691184520721,0.16973315179347992,-0.08485224097967148,-0.015238388441503048,-0.013194452039897442,0.08103001862764359,0.0006166585371829569,-0.10065469145774841,0.02776857279241085,-0.13556993007659912,0.007773029152303934,0.14863444864749908,-0.026654519140720367,0.19501106441020966,-0.05167847499251366,0.06490492820739746,-0.08289209753274918,-0.10873299092054367,0.01984100230038166,-0.05419202148914337,0.008405080996453762,0.05750081315636635,0.028026089072227478,0.09823816269636154,-0.06609433144330978,0.12879301607608795,-0.15497414767742157,0.14229321479797363,0.14581480622291565,-0.12238053232431412,0.26371651887893677,-0.005782261025160551,-0.015484696254134178,0.007406156975775957,-0.16085055470466614,0.16754604876041412,0.009632466360926628,0.04554438218474388,0.004876880440860987,-0.6452932953834534,-0.05325128883123398,-0.10925359278917313,-0.01383952796459198,-0.010206785053014755,0.18684077262878418,0.0732189267873764,-0.11146047711372375,-0.14068719744682312,0.080903559923172,-0.024691252037882805,0.027461400255560875,-0.08726003021001816,-0.1234256774187088,0.031050631776452065,0.1706072986125946,0.10874376446008682,0.18529248237609863,-0.1657906472682953,-0.11061454564332962,0.17849597334861755,0.28141534328460693,-0.10081346333026886,-0.559968888759613,0.11022455245256424,0.11488979309797287,-0.1198115199804306,0.18706345558166504,-0.1328401118516922,0.06339848041534424,-0.11286275833845139,0.048884909600019455,0.12201566249132156,-0.055654127150774,-0.7051692605018616,0.07225826382637024,-0.04111554101109505,-0.19789782166481018,0.07731679826974869,-0.13749167323112488,0.19708678126335144,-0.1132233664393425,-0.043392326682806015,0.3434125483036041,-0.19382916390895844,-0.09460026025772095,-0.11467521637678146,0.08976844698190689,0.4367576539516449,-0.0326724536716938,-0.5450060367584229,0.0647510215640068,0.1566603034734726,0.0268307626247406,0.05473250523209572,0.04099181294441223,-0.08753254264593124,0.19684065878391266,-0.08659354597330093,-0.10417929291725159,-0.18455365300178528,0.08432261645793915,-0.14412009716033936,-0.09900341928005219,0.16127260029315948,0.18566161394119263,-0.1019161120057106,0.1787264049053192,-0.10746007412672043,-0.17706844210624695,-0.019438253715634346,0.19578149914741516,0.02499418333172798,0.08278168737888336,0.05908215790987015,0.03505733236670494,-0.09637415409088135,0.09573657065629959,-0.13338437676429749,0.04229750856757164,0.0693022757768631,-0.015563570894300938,0.05368802323937416,-0.17599445581436157,0.05863189697265625,0.07028408348560333,-0.07516211271286011,0.057148754596710205,0.1589324027299881,0.07027048617601395,-0.09607972949743271,-0.14641954004764557,-0.15994127094745636,0.11983704566955566,-0.06480348110198975,0.14008232951164246,0.10697580873966217,-0.11639470607042313,0.05355040356516838,0.024874644353985786,0.11124905943870544,-0.04268864914774895,0.031539544463157654,-0.08207613229751587,-0.046781886368989944,0.12742772698402405,0.038308437913656235,-0.16375115513801575,0.18039481341838837,0.17523327469825745,-0.1873873621225357,0.17797207832336426,-0.026640482246875763,-0.12909524142742157,-0.16594932973384857,-0.07222927361726761,0.09346847236156464,-0.08360712230205536,-0.12911653518676758,-0.044229600578546524,0.05182819440960884,-0.18797414004802704,0.0546388141810894,-0.18433329463005066,-0.06798219680786133,0.1692182421684265,-0.0739588811993599,-0.04460959881544113,-0.13999176025390625,-0.06375870108604431,-0.11547382920980453,0.12412303686141968],[-0.052241913974285126,-0.5517746210098267,0.18954718112945557,-0.18719159066677094,0.14629220962524414,0.04683997482061386,0.05518130585551262,-0.767303466796875,-0.5812147855758667,0.08326291292905807,-0.10230717062950134,-0.1860026866197586,0.038704875856637955,-0.031027650460600853,0.047840431332588196,-0.0026363551151007414,0.04991414025425911,0.006688590161502361,-0.1575373113155365,-0.1940721720457077,-0.04010312631726265,0.4077624976634979,0.054396647959947586,-1.3847236633300781,-0.16866464912891388,0.12534472346305847,-0.12558650970458984,-0.05101119726896286,0.636163592338562,-0.14473053812980652,-0.40421995520591736,0.03676875680685043,0.12459275126457214,-0.11196568608283997,0.06283442676067352,0.08821802586317062,0.07485493272542953,-0.059543974697589874,-0.16205750405788422,0.10851781815290451,0.1979789286851883,0.025059208273887634,0.13525718450546265,0.11963623017072678,0.1474410444498062,0.1399414986371994,-0.054881270974874496,-0.14502060413360596,-0.14522407948970795,0.07450469583272934,-0.012381126172840595,-0.12109185755252838,0.09719424694776535,-0.005292712245136499,-0.046737559139728546,0.12456389516592026,0.09267354756593704,-0.029843229800462723,0.053127165883779526,-0.1308308243751526,-0.5253440141677856,-0.051711585372686386,0.024542657658457756,-0.16500702500343323,0.030958034098148346,-0.050010114908218384,-0.029555099084973335,0.18870405852794647,0.08000350743532181,0.1131141409277916,-0.13451531529426575,-0.15984168648719788,0.05103910341858864,0.08957652747631073,-0.022381238639354706,0.11377277225255966,-0.05795431509613991,0.15803630650043488,-0.002588283736258745,0.12250343710184097,0.032899290323257446,0.1487075537443161,0.034035343676805496,0.17773951590061188,0.19233830273151398,-0.1327306181192398,-0.11888881027698517,-0.05134862661361694,0.17324697971343994,-0.1602245420217514,0.19083943963050842,0.0077103809453547,-0.06915697455406189,0.003900496056303382,-0.14742961525917053,-0.10688268393278122,0.06927941739559174,-0.1716797649860382,-0.11039020866155624,-0.11225766688585281,-0.07382019609212875,0.13222183287143707,0.03342605009675026,0.04408978670835495,-0.10783776640892029,-0.17035704851150513,0.01699860766530037,0.19039428234100342,0.0949966311454773,0.18198050558567047,0.14582136273384094,0.09584730118513107,-0.0005304277292452753,-0.017408480867743492,0.06645257771015167,-0.20739133656024933,0.06157141551375389,0.08649593591690063,-0.05995553731918335,-0.11036444455385208,-0.11131518334150314,-0.0948113352060318,0.09035667032003403,-0.07918459177017212,-0.4739629626274109,0.1006581112742424,0.14851146936416626,-0.042429614812135696,-0.013138399459421635,0.17464613914489746,-0.09583135694265366,-0.1156805232167244,-0.030766719952225685,-0.14762595295906067,-0.05009941756725311,0.08477286249399185,-0.06478763371706009,-0.15426941215991974,-0.31988295912742615,-0.08525607734918594,-0.22156549990177155,0.17891457676887512,0.10330868512392044,0.027979403734207153,0.09554161876440048,0.7678853273391724,0.138994500041008,-0.03583019599318504,0.04608689621090889,0.03700122982263565,0.0060371654108166695,-0.011063746176660061,0.03856837376952171,0.06459333002567291,-1.1020914316177368,-0.0521136075258255,0.20297856628894806,0.010651562362909317,-0.7281075716018677,0.025508016347885132,0.016026826575398445,0.07643235474824905,0.1925792545080185,0.03085273876786232,0.0840725377202034,0.43182188272476196,-0.030802099034190178,0.344074010848999,0.05708709731698036,0.009861505590379238,-0.10966257750988007,-0.1541193127632141,0.18962271511554718,-0.014728919602930546,-0.7272008061408997,0.12974517047405243,-0.10102487355470657,0.1719064712524414,-0.12595829367637634,0.0011393192689865828,0.12423828989267349,0.25395411252975464,-0.16500377655029297,-0.007235306315124035,0.06599296629428864,-0.07965447008609772,-0.08735620230436325,0.0850963443517685,0.1376267522573471,0.1688041388988495,0.19541238248348236,0.00032251200173050165,0.08860434591770172,-0.1809917837381363,0.13591863214969635,-0.14362898468971252,0.05269552767276764,0.10177361220121384,0.013978762552142143,0.14277036488056183,-0.1946139633655548,0.15583425760269165,0.1932883858680725,-0.01298311073333025,0.0847545713186264,0.11998763680458069,-0.17289645969867706,-0.06645677238702774,0.12178122997283936,-0.13774587213993073,-0.14861316978931427,-0.15049409866333008,0.0053229681216180325,0.033886149525642395,-0.12074722349643707,-0.117313452064991,0.10130752623081207,-0.10948044061660767,0.14277830719947815,-0.08758923411369324,-0.05956078693270683,-0.06299785524606705,-0.08364556729793549,-0.15540924668312073,0.13348186016082764,0.11642403900623322,0.13864758610725403,-0.007028941530734301,0.18851324915885925,-0.026741746813058853,-0.12022025138139725,-0.06131372228264809,-0.09330958127975464,0.17736773192882538,0.11714627593755722,0.11323675513267517,-0.08541802316904068,0.11719729006290436,-0.19550879299640656,0.15703235566616058,-0.17230653762817383,-0.12745676934719086,0.13934506475925446,-0.055301062762737274,-0.04273373261094093,0.05441373586654663,0.03744794428348541,0.05815742164850235,-0.11485457420349121,0.10744348913431168,0.19541111588478088,0.070570208132267,-0.17198580503463745,-0.18242909014225006,-0.1045612245798111,-0.05911577120423317],[0.09961103647947311,-0.5498318076133728,-0.08387289941310883,-0.2754247188568115,-0.15839006006717682,0.02132255584001541,-0.19652187824249268,-0.6797742247581482,0.2589542269706726,-0.02650405652821064,-0.10340211540460587,-0.14306651055812836,-0.11348491907119751,-0.0015187496319413185,-0.3073025345802307,0.09765204042196274,-0.01001698337495327,0.08130549639463425,0.1217777281999588,-0.15711592137813568,0.00699388375505805,-0.28467199206352234,0.18867044150829315,-0.2537210285663605,-0.18584007024765015,0.19671881198883057,0.09488321840763092,-0.030970802530646324,-0.405111700296402,0.10537523031234741,0.06159912422299385,0.19524385035037994,-0.18004076182842255,0.06703741103410721,-0.07299518585205078,0.15878349542617798,0.16844555735588074,0.15662063658237457,-0.13058894872665405,0.08484609425067902,0.059403859078884125,0.021623307839035988,-0.056134819984436035,-0.01625797152519226,0.110541433095932,-0.025625521317124367,-0.1972406506538391,0.054187048226594925,-0.06613665074110031,0.12372366338968277,0.08367148041725159,0.09851522743701935,-0.022553952410817146,-0.02255987748503685,-0.18820138275623322,-0.1208491176366806,0.15490077435970306,-0.1592046320438385,0.17447499930858612,0.15099015831947327,-0.18549583852291107,-0.0808548703789711,0.01649666205048561,-0.1543179154396057,-0.06422225385904312,0.1668301820755005,-0.01779385656118393,0.09003830701112747,-0.10922155529260635,0.04630895331501961,0.1846684068441391,0.1838599443435669,-0.02391359955072403,0.10398417711257935,-0.17054903507232666,-0.1404879093170166,-0.045749932527542114,-0.09920711070299149,0.11637777835130692,0.10754634439945221,-0.14163464307785034,-0.13550306856632233,0.047547273337841034,-0.16312329471111298,0.18226440250873566,0.18170705437660217,0.05087950825691223,0.11645396053791046,0.045099638402462006,-0.012810843996703625,-0.14326168596744537,-0.1539294570684433,-0.1848069131374359,0.05967634543776512,-0.19601485133171082,-0.07052364200353622,-0.14837677776813507,-0.06592106074094772,0.021111629903316498,-0.0066328695975244045,0.14601880311965942,-0.04641667380928993,0.02503715455532074,0.054076019674539566,0.19952425360679626,-0.031810462474823,0.021159987896680832,0.05689340829849243,-0.09321105480194092,-0.04492003843188286,-0.18732008337974548,0.04161462560296059,0.13133956491947174,0.03573540970683098,0.0929495319724083,-0.012586381286382675,-0.028546735644340515,0.11080823838710785,-0.19965693354606628,-0.15839695930480957,0.06719683110713959,0.09585294872522354,0.08413627743721008,-0.06904471665620804,-0.33330008387565613,-0.18263477087020874,-0.13553184270858765,0.006690580863505602,-0.18142510950565338,-0.19359786808490753,0.06534183770418167,0.19529730081558228,-0.07306180149316788,-0.15764686465263367,-0.01204556506127119,-0.174154594540596,-0.023084385320544243,0.08305493742227554,-0.1181822270154953,0.09304571896791458,-0.157423734664917,0.06027646362781525,0.06434579193592072,-0.12743152678012848,-0.08189889043569565,-0.14635756611824036,-0.04964444041252136,-0.1883295774459839,0.015031333081424236,-0.17066356539726257,-0.05991898849606514,-0.14000342786312103,-0.10999516397714615,0.031061485409736633,-0.06691879779100418,0.12350886315107346,0.11073128879070282,-0.11169455200433731,-0.13170911371707916,0.0031356331892311573,-0.044343966990709305,0.03635203838348389,0.027872057631611824,0.08590158075094223,-0.06154296547174454,-0.39643561840057373,0.11879695951938629,-0.07172481715679169,-0.07231438905000687,0.029681352898478508,-0.08589141070842743,0.017521586269140244,-0.016153620555996895,-0.11162947863340378,-0.15516522526741028,-0.14116400480270386,0.13270267844200134,0.14444400370121002,-0.15668196976184845,-0.1016320213675499,0.12594424188137054,-0.25195398926734924,-0.13431335985660553,0.14578960835933685,-0.15293088555335999,0.07674968242645264,0.08751016110181808,-0.1445549875497818,-0.04779333993792534,0.11595771461725235,0.10330402106046677,-0.08790138363838196,0.14021556079387665,-0.15340617299079895,-0.13457298278808594,0.07675249874591827,0.0744999498128891,-0.06444662809371948,-0.04647771641612053,0.015921151265501976,-0.08155929297208786,0.028337208554148674,0.12462864071130753,-0.07074994593858719,-0.07800379395484924,-0.1364259123802185,0.011929935775697231,0.19072924554347992,0.1569952368736267,-0.0304127000272274,-0.09487615525722504,-0.11519679427146912,-0.19422905147075653,-0.16237162053585052,0.07264050096273422,0.1288912445306778,0.002266454277560115,0.09687656909227371,0.08657119423151016,-0.046640995889902115,0.12495961785316467,0.0037921040784567595,-0.07995829731225967,-0.1432083696126938,-0.14528034627437592,-0.09132422506809235,0.0005057764938101172,-0.06933962553739548,-0.0009214079473167658,0.15709643065929413,-0.18234893679618835,0.13931919634342194,0.14748521149158478,-0.1160188615322113,0.034239936619997025,0.0069873398169875145,0.07797716557979584,-0.10428643226623535,0.09302502870559692,-0.008288240991532803,0.18552012741565704,0.07535415887832642,0.09414820373058319,-0.0532979816198349,-0.05919181928038597,0.08731997758150101,0.16261811554431915,0.04836314916610718,-0.17131216824054718,0.176370307803154,0.16349267959594727,0.004237394779920578,-0.05619009956717491,-0.13798265159130096,-0.08384484052658081,0.1948305368423462],[0.06940455734729767,0.03213924169540405,0.1859661191701889,0.23090000450611115,0.07700103521347046,0.1105552688241005,-0.09564365446567535,0.3019072711467743,0.7973504662513733,0.12633450329303741,0.418266624212265,0.031364087015390396,-1.205543875694275,0.04698663949966431,-0.10375558584928513,0.06692540645599365,0.0965983122587204,-0.029574014246463776,0.0406438484787941,-0.08483511209487915,0.1387995332479477,-0.6798543930053711,-0.10462528467178345,0.8236364126205444,-0.1455824226140976,-0.016234584152698517,0.04745858907699585,0.05117293819785118,-0.6730716228485107,-0.05852273106575012,0.6633983850479126,-0.04438255727291107,0.1199643537402153,-0.08047161996364594,-0.004525852855294943,0.019938647747039795,0.14982552826404572,-0.07891244441270828,-0.11394593119621277,-0.10542643815279007,0.1425224244594574,0.00392119400203228,-0.0740664005279541,0.09337169677019119,-0.19269691407680511,0.19353052973747253,-0.03657152131199837,-0.05118933692574501,0.1064637154340744,0.181266188621521,0.024298179894685745,0.16533124446868896,-0.023057308048009872,-0.05181904137134552,0.020615382120013237,0.0650269165635109,-0.04816411808133125,-0.1594870686531067,-0.14082658290863037,-0.07847455143928528,-0.06305956840515137,0.12558510899543762,0.1485007405281067,0.09195278584957123,-0.08435825258493423,0.15904155373573303,0.10577847808599472,0.10670780390501022,0.19650927186012268,0.17562799155712128,-0.1629376858472824,-0.10548358410596848,-0.017298489809036255,0.19360727071762085,0.009014274924993515,0.04469827935099602,0.02984769456088543,-0.1237427145242691,-0.10605089366436005,-0.19003796577453613,0.1846965253353119,0.19311371445655823,0.08150599896907806,-0.17676132917404175,-0.16574136912822723,-0.14051613211631775,0.0623556412756443,0.14697429537773132,-0.02431917004287243,-0.01539812795817852,-0.14897160232067108,0.15564240515232086,0.035074345767498016,-0.18916933238506317,0.1976163536310196,0.14076381921768188,0.1294202357530594,0.06111191213130951,-0.005106304306536913,0.16709104180335999,0.07445427030324936,0.07271775603294373,0.07141020894050598,0.06347635388374329,-0.014972712844610214,0.04013458639383316,0.1211334764957428,-0.04371622949838638,-0.02919550985097885,0.15910077095031738,-0.005513622425496578,-0.060394298285245895,-0.10738982260227203,-0.08024276793003082,0.04922480136156082,0.107951819896698,0.09853512793779373,0.16079534590244293,-0.05995873361825943,0.10884338617324829,-0.02546568214893341,0.007975921034812927,0.002750655170530081,-0.11005767434835434,0.09829475730657578,-0.17841394245624542,0.18563657999038696,-0.14529748260974884,-0.193215474486351,-0.11255940794944763,-0.057167842984199524,-0.04739026725292206,0.17452166974544525,-0.08558861166238785,-0.05101585388183594,0.1194123700261116,-0.7082117199897766,-0.14012250304222107,0.986758828163147,-0.020610488951206207,-0.03516320139169693,0.17358754575252533,-0.09443812817335129,0.05485701933503151,0.15658655762672424,-0.2903158366680145,-0.03518291935324669,0.21224886178970337,0.1352892518043518,0.13157184422016144,0.029032256454229355,0.12045495957136154,0.10949385911226273,0.1798320710659027,-0.051360420882701874,-0.18147464096546173,0.21883627772331238,-0.0956827700138092,-0.034363508224487305,-0.05522454157471657,-0.19880245625972748,-0.01857384853065014,-0.16672122478485107,0.14991745352745056,-0.19206224381923676,-0.35444438457489014,-0.027097122743725777,0.031905997544527054,-0.018467554822564125,0.08069026470184326,-0.11508412659168243,0.14196377992630005,-0.19611506164073944,0.10012298077344894,-0.013396169058978558,0.10660698264837265,0.0033132433891296387,0.14144165813922882,-0.09156889468431473,-0.18831703066825867,0.04730093851685524,0.01897997036576271,-0.08842673897743225,-0.022345541045069695,0.16941608488559723,-0.0007621343247592449,0.086252361536026,0.18648621439933777,0.10276205837726593,0.0785784050822258,-0.1324223279953003,0.15814968943595886,-0.06582000106573105,-0.07197318971157074,-0.11518649011850357,-0.08628171682357788,-0.11441987752914429,-0.18272936344146729,-0.02417372167110443,-0.18454058468341827,0.16784755885601044,-0.015238304622471333,-0.04852437973022461,-0.10213998705148697,0.1688828319311142,-0.0463021919131279,0.135177344083786,-0.11378471553325653,-0.0091418931260705,-0.16501782834529877,0.16842582821846008,0.10790783166885376,0.06890690326690674,-0.08141188323497772,0.13487555086612701,-0.040544893592596054,-0.13900239765644073,-0.027450647205114365,-0.14223025739192963,-0.11881759017705917,-0.018784504383802414,0.15096810460090637,-0.16536200046539307,0.051663320511579514,0.05401578173041344,0.13640817999839783,-0.07180976122617722,0.16346976161003113,0.07025304436683655,-0.12044713646173477,0.11120330542325974,-0.11298619210720062,0.13812457025051117,0.09889284521341324,0.0053338478319346905,0.10557246208190918,0.10513756424188614,0.15264606475830078,0.06600325554609299,-0.09842228889465332,0.1866006851196289,0.022129403427243233,-0.12618854641914368,0.1523824781179428,0.10252347588539124,-0.03209324926137924,0.13960449397563934,-0.1703820377588272,-0.02576233632862568,0.041182130575180054,-0.17065849900245667,-0.003865625476464629,0.09639238566160202,0.04566003754734993,-0.0055533237755298615,-0.09907080233097076],[0.1349523514509201,-0.5596660375595093,-0.09352148324251175,-1.0079580545425415,-0.031497854739427567,-0.14588488638401031,0.1714629977941513,-0.5731661915779114,0.6041920185089111,-0.06537499278783798,0.04757191613316536,-0.013972042128443718,-0.550704300403595,-0.09635575115680695,-0.4072915017604828,-0.0522017702460289,0.08432766795158386,0.053133752197027206,0.05041120946407318,0.12452378123998642,0.01467127725481987,-0.2800912857055664,0.0994872972369194,-0.17734545469284058,-0.1764594316482544,0.09999339282512665,0.09812217205762863,-0.07574833184480667,-0.33091387152671814,-0.02887692302465439,-0.1642894595861435,0.182034432888031,-0.10981955379247665,-0.05343906581401825,-0.15931980311870575,-0.06404976546764374,0.06040053069591522,0.05385824665427208,0.05089786648750305,-0.06417692452669144,0.17015677690505981,0.07012868672609329,0.1034717783331871,0.07144735753536224,-0.033678196370601654,-0.05674154311418533,0.1487315148115158,-0.01892690733075142,0.12366325408220291,-0.16723176836967468,0.131248340010643,0.10900141298770905,0.006057037506252527,0.05622667074203491,-0.08827437460422516,0.006079016253352165,-0.0800798162817955,-0.07283122092485428,0.05801118537783623,0.01926715299487114,-0.1402440369129181,-0.01437023188918829,0.023969192057847977,0.1862897425889969,0.03779100626707077,-0.04785165563225746,0.07710510492324829,-0.07952353358268738,0.1386435627937317,-0.15075255930423737,0.023628486320376396,0.15677253901958466,-0.08273462951183319,0.08955593407154083,-0.16471663117408752,-0.15556089580059052,-0.17665214836597443,0.14271710813045502,0.12520375847816467,0.06601212918758392,-0.18535712361335754,0.15577484667301178,-0.11569739133119583,0.14769449830055237,0.12836375832557678,-0.14954623579978943,-0.09123092889785767,0.00024694911553524435,-0.09893286228179932,-0.19870063662528992,0.18353112041950226,0.06561648100614548,-0.11878426373004913,0.1791013479232788,0.07610175013542175,-0.040506307035684586,0.051909565925598145,0.1977001279592514,-0.07194671034812927,-0.17629314959049225,0.14143836498260498,-0.13612818717956543,-0.04868418723344803,-0.1428111344575882,0.07535495609045029,0.14914266765117645,0.168071910738945,-0.16210278868675232,-0.1597558557987213,-0.14973987638950348,-0.18784746527671814,0.17053884267807007,-0.1238175481557846,-0.05528710037469864,0.013042444363236427,-0.05202243849635124,-0.018901320174336433,-0.04050859808921814,-0.01356817688792944,-0.06008727103471756,0.08304136246442795,-0.16861458122730255,0.19581224024295807,-0.15390487015247345,-0.2527447044849396,0.13731792569160461,-0.03296089544892311,-0.11104581505060196,-0.06742920726537704,0.1338021606206894,-0.14011423289775848,-0.19657178223133087,-0.01702764816582203,-0.12844131886959076,-0.043881166726350784,0.07929734885692596,-0.5862244963645935,-0.11048578470945358,0.5631701350212097,0.08279578387737274,0.08926653861999512,-0.1356830596923828,-0.01674428954720497,-0.09215902537107468,-0.015601812861859798,-0.36822840571403503,0.1988937258720398,-0.014810163527727127,-0.1024826169013977,-0.048569757491350174,-0.0925683006644249,0.18967509269714355,-0.12173569202423096,0.12608638405799866,-0.46397480368614197,0.11548402160406113,0.4338809847831726,0.13887058198451996,-0.2594335377216339,0.1918390542268753,0.07259983569383621,0.004882137291133404,-0.17393487691879272,-0.0547855943441391,0.04363221302628517,-0.6434580683708191,-0.06861644238233566,-0.42842450737953186,-0.09993687272071838,-0.08293739706277847,0.1178489550948143,-0.17777587473392487,-0.21368026733398438,0.13454829156398773,-0.08008759468793869,0.09665262699127197,0.04690922796726227,-0.15073727071285248,-0.11760517209768295,0.19759492576122284,-0.027572672814130783,0.3572123944759369,0.1839689463376999,0.08365347236394882,-0.07038912177085876,0.15660519897937775,-0.03831415995955467,0.04620528966188431,-0.10138269513845444,0.17781393229961395,0.13320527970790863,0.08607085049152374,0.14953511953353882,-0.014960044994950294,-0.03144117444753647,0.11688560992479324,0.17480012774467468,0.024801619350910187,-0.02065710723400116,-0.10306922346353531,-0.13708370923995972,0.06947825849056244,0.05574246123433113,-0.0695764347910881,0.1680854856967926,0.09482874721288681,-0.06691741943359375,0.12611447274684906,-0.12364012002944946,-0.15995363891124725,0.07145245373249054,0.1559934765100479,-0.1736147701740265,0.1709056943655014,-0.013312313705682755,-0.07341266423463821,0.03215688094496727,0.1906541883945465,-0.19991318881511688,-0.14029617607593536,0.03224381059408188,0.05219626799225807,0.12970513105392456,-0.06642255187034607,0.11026497930288315,-0.051121290773153305,0.13905802369117737,0.04852328822016716,-0.08618387579917908,0.18925048410892487,-0.043356094509363174,0.1648666113615036,0.11949411779642105,-0.16210030019283295,0.12160973995923996,-0.18198895454406738,-0.1462816298007965,0.10886101424694061,-0.15071292221546173,-0.15401135385036469,0.11651314795017242,-0.008456102572381496,0.15311060845851898,-0.18600089848041534,-0.08799108117818832,0.06753603368997574,0.19769072532653809,-0.18039563298225403,0.004008933901786804,-0.15804478526115417,0.09203343838453293,-0.02989884465932846,0.09623553603887558,-0.04205829277634621,-0.10167818516492844,0.18273566663265228],[0.00022927713871467859,-0.6164970397949219,0.12040159106254578,-0.3741208612918854,-0.028811253607273102,-0.1360432207584381,0.0621090829372406,-0.7442615628242493,0.01934061385691166,-0.10134325921535492,-0.12562330067157745,0.003927800804376602,0.03364455699920654,0.11810535937547684,-0.3018297255039215,0.07440347969532013,0.09944526106119156,-0.07412312924861908,0.10412369668483734,0.19282039999961853,0.07824676483869553,-0.16441400349140167,-0.1573183238506317,-0.6771231293678284,-0.1253364384174347,0.17685097455978394,0.19685621559619904,0.1040642186999321,-0.12213800102472305,-0.1288316696882248,-0.258002907037735,-0.0021698293276131153,0.18176783621311188,-0.07482896745204926,-0.0701473280787468,0.07639158517122269,-0.09501297026872635,0.015879224985837936,-0.14566031098365784,0.09341827034950256,0.004413180984556675,-0.1780133694410324,0.09435644745826721,0.05256200209259987,-0.17083530128002167,-0.1520712971687317,0.014836526475846767,-0.09711890667676926,0.061934493482112885,0.029614374041557312,-0.004836020991206169,-0.11796161532402039,0.19971251487731934,0.1322847157716751,-0.15642938017845154,0.1306188553571701,-0.027890508994460106,0.024270687252283096,0.11604524403810501,-0.06522244960069656,-0.22634123265743256,-0.09375207126140594,-0.19617967307567596,0.062042661011219025,-0.17579838633537292,-0.1713438183069229,-0.17106708884239197,-0.1534803807735443,-0.10389560461044312,0.12072443962097168,-0.08110438287258148,0.19928090274333954,0.19224005937576294,0.05643384903669357,-0.197784885764122,0.19121862947940826,0.05593544617295265,-0.18474167585372925,0.14735962450504303,0.007115141022950411,0.046018779277801514,-0.022948769852519035,0.11324501782655716,-0.042765624821186066,0.09094434231519699,0.12132582813501358,-0.026725860312581062,0.16950856149196625,0.19637897610664368,-0.12654922902584076,0.10485124588012695,-0.07835423201322556,0.0009902027668431401,-0.16582952439785004,-0.1422315239906311,0.008245549164712429,0.17942248284816742,0.162876158952713,-0.13376325368881226,0.007863534614443779,0.16217805445194244,0.08554238826036453,0.19700144231319427,0.18459060788154602,-0.19856061041355133,-0.06759674102067947,-0.18935425579547882,0.03529614210128784,0.0869780108332634,0.029603466391563416,0.15408280491828918,-0.1041179969906807,-0.13462205231189728,-0.08616431057453156,0.05034846067428589,0.0521727092564106,-0.19364716112613678,0.09509175270795822,0.09162785857915878,0.18525336682796478,-0.00917891412973404,0.06120358407497406,0.03426948934793472,-0.17955650389194489,-0.37522876262664795,0.012190859764814377,-0.017492501065135002,0.15697650611400604,0.11969968676567078,0.12451600283384323,-0.16675491631031036,0.15485669672489166,0.1857759952545166,-0.10013250261545181,-0.008030666969716549,0.15428531169891357,0.09697194397449493,0.16112321615219116,-0.19740794599056244,-0.16898557543754578,-0.12519001960754395,-0.13166570663452148,-0.015599325299263,0.18413518369197845,0.08677397668361664,-0.07034613192081451,-0.16822165250778198,0.16197434067726135,0.19414444267749786,0.19296102225780487,0.0697406604886055,0.012733882293105125,0.038545165210962296,0.1578359156847,-0.2588646113872528,0.17860066890716553,-0.15356096625328064,-0.1895863115787506,-0.20727364718914032,0.04951503500342369,-0.08593230694532394,-0.1211978942155838,-0.019936369732022285,0.04167017340660095,-0.09133974462747574,-0.06871094554662704,-0.06698916107416153,-0.12972299754619598,0.16351501643657684,-0.1438973844051361,0.0416603721678257,0.06100206822156906,-0.07768090069293976,0.10671225190162659,0.11261576414108276,0.16102194786071777,0.035403329879045486,0.19449985027313232,0.15823958814144135,-0.10252627730369568,-0.1189032644033432,-0.08955015987157822,0.08304192125797272,-0.17973692715168,-0.1632525622844696,-0.03814294561743736,-0.1812029629945755,-0.06555913388729095,-0.07942900061607361,0.04190848022699356,-0.02843586355447769,0.13631755113601685,0.14767801761627197,0.0022813098039478064,0.07142524421215057,-0.12446989119052887,-0.14253398776054382,-0.16206416487693787,-0.12337931990623474,0.14696602523326874,-0.058352578431367874,-0.16152721643447876,0.07943348586559296,0.10432297736406326,-0.046089835464954376,-0.08162694424390793,-0.003134568687528372,-0.002699504606425762,-0.03413207828998566,-0.19741535186767578,0.13050225377082825,0.1834527999162674,-0.1932571828365326,0.005890676751732826,-0.05195089057087898,0.1743646264076233,-0.1372910737991333,-0.10432610660791397,-0.030236029997467995,-0.12593147158622742,0.1719149947166443,0.1715569645166397,-0.12593291699886322,-0.097020223736763,-0.07041949033737183,0.12475423514842987,0.11802984774112701,0.19399896264076233,-0.17307376861572266,0.1781609058380127,0.10563082993030548,0.14593824744224548,-0.019170645624399185,-0.055318597704172134,-0.10052089393138885,-0.14871415495872498,-0.14286182820796967,0.1559070497751236,-0.024104656651616096,0.15121977031230927,0.11297175288200378,0.1852654367685318,0.02332352101802826,-0.08380988985300064,0.008408185094594955,0.07630683481693268,0.16437873244285583,-0.1660318225622177,0.014164279215037823,0.09885282814502716,0.1731606423854828,-0.19877327978610992,-0.137734517455101,-0.055237509310245514,-0.031510017812252045,-0.13319791853427887],[-0.1129375696182251,-0.439679890871048,-0.0068981703370809555,-0.40761056542396545,0.13425417244434357,0.1985064297914505,0.11419381201267242,-0.5770803093910217,0.14134371280670166,-0.11604277044534683,0.1346789449453354,-0.16322045028209686,-0.16614845395088196,0.05877314507961273,-0.34885096549987793,0.10385947674512863,0.14220015704631805,-0.007387981750071049,0.07667279243469238,0.14417989552021027,-0.09950379282236099,-0.20138968527317047,-0.17797324061393738,-0.727580189704895,0.02398846670985222,-0.04133358225226402,-0.052984777837991714,-0.08469784259796143,-0.16024808585643768,0.07661242038011551,-0.21114106476306915,-0.1904633641242981,0.03649892657995224,0.09039631485939026,-0.06212132051587105,-0.10036440193653107,-0.16503894329071045,-0.034947432577610016,-0.016986319795250893,-0.0385943166911602,0.13720664381980896,0.1579277664422989,-0.14329643547534943,-0.09931667149066925,0.0704132467508316,0.05214926227927208,0.17892956733703613,-0.11334460228681564,0.11772532761096954,0.07747170329093933,0.06780709326267242,-0.061940040439367294,-0.11762353777885437,-0.07885023206472397,0.020620057359337807,0.12753510475158691,0.15231551229953766,0.05454152077436447,-0.028996124863624573,0.12917982041835785,-0.3352724015712738,0.01794786937534809,0.19659657776355743,-0.06695212423801422,0.004312857054173946,-0.061247941106557846,0.1386938989162445,0.10831023752689362,0.19687990844249725,0.13268937170505524,0.19431142508983612,0.1051664799451828,0.11503658443689346,-0.10489010065793991,0.10255046933889389,-0.10708046704530716,-0.037764426320791245,-0.04254211485385895,0.18819379806518555,-0.09768739342689514,-0.1413772702217102,0.06865257024765015,-0.010831787250936031,-0.15683217346668243,-0.1820226013660431,0.1837066113948822,-0.10893112421035767,-0.15733300149440765,0.13197870552539825,0.1578274816274643,-0.11136502772569656,-0.16224704682826996,-0.1683598905801773,0.01816394552588463,-0.05660024657845497,-0.15542088449001312,-0.14195621013641357,-0.11070618778467178,-0.16893143951892853,-0.04551771655678749,0.11820868402719498,0.1179599016904831,0.0787738636136055,-0.02553834579885006,0.08454301208257675,0.09950744360685349,0.05198128893971443,-0.1601531058549881,0.08068127930164337,-0.06496815383434296,0.060633864253759384,-0.03792078047990799,-0.19040462374687195,-0.034947916865348816,0.15962469577789307,-0.19675199687480927,-0.13943356275558472,-0.15135735273361206,0.03680117800831795,-0.044984105974435806,-0.04651572182774544,0.08751434087753296,-0.12569665908813477,0.15970374643802643,-0.09787571430206299,-0.025187715888023376,0.07937703281641006,0.014206902123987675,-0.07732617855072021,0.15280142426490784,0.026241933926939964,-0.1018000915646553,-0.17200638353824615,-0.0028944341465830803,0.009504838846623898,0.04023100808262825,-0.32080432772636414,-0.031241562217473984,-0.15205849707126617,-0.08409751951694489,0.031365323811769485,-0.11584058403968811,0.02074318751692772,0.09783368557691574,0.07177141308784485,-0.0950472503900528,-0.05104674771428108,-0.007471325341612101,-0.18383246660232544,0.018527748063206673,-0.020648719742894173,0.1369962841272354,0.17039653658866882,-0.11163606494665146,-0.22935231029987335,-0.18151453137397766,-0.1397913545370102,0.16409863531589508,0.0607864111661911,-0.0004469830892048776,-0.09673291444778442,0.06280191242694855,-0.023910541087388992,-0.18274889886379242,-0.1419738084077835,-0.16374418139457703,0.15721836686134338,-0.31649327278137207,0.030698344111442566,-0.17921924591064453,-0.14045411348342896,-0.19672130048274994,0.03924757242202759,0.18603374063968658,-0.058787863701581955,0.13915707170963287,0.17601744830608368,-0.18006080389022827,0.1347099393606186,-0.07487241923809052,-0.024611420929431915,-0.3003678023815155,-0.11883902549743652,0.09029038995504379,-0.1721944510936737,-0.1593753546476364,-0.16149306297302246,0.07119697332382202,0.03492513298988342,-0.16050004959106445,-0.033843617886304855,-0.09022368490695953,0.08380325138568878,-0.06311451643705368,0.08314792066812515,-0.08843953162431717,-0.17807206511497498,-0.022741880267858505,-0.08527659624814987,0.08191163837909698,0.1768326759338379,-0.11192663013935089,-0.13010787963867188,-0.17809957265853882,0.16439689695835114,-0.049370311200618744,-0.15258562564849854,-0.19068267941474915,-0.09144776314496994,-0.07781019061803818,-0.06059449538588524,-0.12275556474924088,-0.11826784908771515,-0.006392884533852339,0.0413600355386734,0.05367189645767212,-0.1537342518568039,0.12578852474689484,-0.0266827754676342,0.037293441593647,-0.04935266450047493,-0.1628469079732895,0.05450185760855675,-0.09129872918128967,-0.09954368323087692,0.00398452440276742,0.15604621171951294,0.1745588630437851,0.15899762511253357,0.13229483366012573,-0.12922701239585876,0.15239273011684418,-0.04341546818614006,-0.03424983471632004,0.12309835851192474,-0.17728659510612488,-0.18572379648685455,0.02282889001071453,0.016126111149787903,-0.12474960088729858,-0.13164393603801727,0.14428295195102692,-0.18034692108631134,-0.0817950889468193,-0.03652124106884003,-0.10496107488870621,-0.14722760021686554,-0.06850532442331314,-0.11162346601486206,0.15862958133220673,0.01753508299589157,-0.18942849338054657,0.16771280765533447,-0.024152154102921486,-0.04335622861981392,-0.09116862714290619],[-0.17153038084506989,-0.5516173243522644,-0.08805237710475922,-0.3238063156604767,-0.02066541649401188,-0.054858122020959854,-0.06576492637395859,-0.07841654866933823,1.2336342334747314,-0.1766974925994873,-0.05436529591679573,-0.13630500435829163,-0.7332450151443481,-0.01504124142229557,-0.7194007635116577,0.06841391324996948,-0.017645081505179405,-0.09432276338338852,0.010872540064156055,-0.1259324997663498,-0.1857653260231018,-0.46528521180152893,0.04143419489264488,0.15604576468467712,0.013481858186423779,0.0209873728454113,0.057525090873241425,-0.038331542164087296,-0.44048944115638733,-0.12189038842916489,-0.4490688145160675,-0.13238582015037537,0.09806778281927109,0.04887247458100319,-0.004659635480493307,-0.10465426743030548,-0.04934806376695633,-0.019917193800210953,-0.16857466101646423,-0.07185496389865875,0.019183482974767685,0.05815689638257027,0.19067439436912537,0.05639076232910156,-0.017257826402783394,-0.039274800568819046,-0.135755717754364,0.11201923340559006,0.06664611399173737,0.053892843425273895,-0.18066605925559998,0.0035405943635851145,0.18351124227046967,-0.03494416922330856,0.009084382094442844,0.187275230884552,-0.1486651748418808,-0.19874721765518188,-0.09080365300178528,0.07141026854515076,-0.20499573647975922,0.1681542992591858,0.10744506120681763,0.09924858063459396,-0.1729690283536911,-0.014639146625995636,-0.19460128247737885,-0.1666622906923294,-0.059254392981529236,-0.05992364510893822,-0.006479145493358374,-0.17917121946811676,0.05920995771884918,0.19561177492141724,0.1113690659403801,-0.09860050678253174,-0.06308075040578842,-0.05490444600582123,-0.13667277991771698,-0.10460647195577621,0.10368527472019196,-0.14930158853530884,-0.08596169203519821,0.14391477406024933,0.00449552945792675,-0.08825483173131943,-0.077889084815979,0.04063756763935089,-0.1167333647608757,-0.031024228781461716,-0.01093472819775343,0.009162119589745998,-0.14613714814186096,0.045454610139131546,0.1348440796136856,-0.08742270618677139,0.11610185354948044,0.10857931524515152,-0.19739599525928497,0.09334123134613037,-0.14606977999210358,0.0485503226518631,-0.1751602739095688,-0.12793074548244476,0.19383753836154938,0.18185216188430786,0.01762230508029461,-0.13882330060005188,0.12213904410600662,-0.19009481370449066,-0.1937459111213684,-0.07110627740621567,0.04462503269314766,-0.010314477607607841,0.0430377721786499,0.20841990411281586,0.13988237082958221,0.262206107378006,0.18031029403209686,-0.10177931189537048,-0.14902110397815704,0.05535377189517021,0.1779235601425171,0.020389312878251076,0.16254429519176483,-0.09694241732358932,-0.06361784785985947,-0.1700124740600586,0.06666368991136551,0.09820938110351562,0.19426970183849335,-0.1614718735218048,0.1328466534614563,-0.04962402954697609,-0.03649330884218216,0.12053002417087555,-0.607733428478241,0.16259266436100006,0.578036367893219,0.09450287371873856,0.005737490952014923,-0.0938376635313034,0.05839674919843674,0.1470600664615631,-0.09745539724826813,-0.12292914092540741,-0.1335851550102234,-0.03265399858355522,0.06058306246995926,0.09811069816350937,0.03413088619709015,0.13915042579174042,0.17005594074726105,-0.1810159534215927,-0.4209839999675751,0.11017574369907379,0.03835589438676834,-0.005624489858746529,0.1391623467206955,-0.13849034905433655,0.09058276563882828,-0.09744425117969513,-0.06366101652383804,0.1455758959054947,-0.1089738979935646,-0.40945103764533997,0.19919238984584808,-0.4510021507740021,0.019813256338238716,-0.11615072190761566,0.025433404371142387,-0.08918114006519318,-0.09357878565788269,0.19413147866725922,0.059748463332653046,0.19914506375789642,-0.07761573791503906,-0.0752020850777626,-0.08693645894527435,-0.03573186695575714,-0.007271112408488989,-0.27689632773399353,-0.17333535850048065,-0.19319188594818115,0.13521155714988708,-0.10665145516395569,0.1713811457157135,0.08110444247722626,-0.16926807165145874,-0.03888116776943207,-0.1371784508228302,0.14985735714435577,0.14793439209461212,0.12583321332931519,0.023427700623869896,-0.09359340369701385,0.0892355665564537,-0.1896618902683258,0.10736062377691269,0.15573015809059143,0.0024573160335421562,0.030230805277824402,0.11976694315671921,0.12691934406757355,-0.09544699639081955,0.062006864696741104,-0.021493930369615555,-0.1783631443977356,-0.16939862072467804,-0.15906409919261932,-0.06272891163825989,-0.09139413386583328,-0.01737545058131218,0.13670963048934937,0.14838650822639465,0.10370153188705444,0.11325396597385406,-0.057420048862695694,0.03863239660859108,0.01060634944587946,-0.16724705696105957,-0.10418883711099625,0.043276771903038025,0.11296594142913818,-0.13514134287834167,0.014722080901265144,0.10148965567350388,0.11632678657770157,0.021273113787174225,-0.15629151463508606,0.12357694655656815,-0.18166953325271606,0.08840043842792511,-0.15439797937870026,-0.09663072228431702,-0.1823270618915558,-0.02164691686630249,-0.05522827431559563,-0.0662345215678215,-0.0994306430220604,0.10232032835483551,-0.01815023645758629,-0.00827084481716156,-0.029070787131786346,-0.007866515778005123,0.05468994379043579,-0.1956779509782791,-0.09454517811536789,-0.07590493559837341,-0.19464798271656036,0.18306273221969604,-0.16781578958034515,-0.1834055483341217,0.04065067693591118,0.18771187961101532,0.12313631176948547],[-0.04430907592177391,-0.5572218298912048,0.05804822966456413,-0.6184394955635071,-0.14504802227020264,0.06571348756551743,-0.05249987542629242,-0.5239013433456421,-0.4598410427570343,0.07366491854190826,-0.003606453537940979,-0.012441830709576607,0.49223387241363525,-0.004809810779988766,-0.5033767223358154,-0.15698769688606262,0.10878065973520279,-0.17581507563591003,0.17897911369800568,0.11865044385194778,0.06764166802167892,0.1824493110179901,-0.008545382879674435,-0.9703036546707153,0.11090511828660965,-0.017855985090136528,0.04452572762966156,-0.16357803344726562,0.02541595697402954,0.1707281917333603,-0.08103539794683456,0.13687296211719513,-0.17250362038612366,-0.09470231086015701,-0.03848942741751671,0.10317248851060867,-0.09629683941602707,0.15315644443035126,0.09719839692115784,0.18547791242599487,-0.1453717052936554,0.15376944839954376,-0.10547561943531036,-0.11993713676929474,0.14105281233787537,-0.12250801175832748,-0.13069778680801392,0.16439218819141388,-0.0003185878158546984,-0.05472613498568535,-0.1020621731877327,0.04710717499256134,0.0879804864525795,-0.07061435282230377,0.09895560145378113,-0.11581812798976898,-0.18314197659492493,-0.1705767959356308,0.037170104682445526,-0.11001592874526978,-0.20629051327705383,-0.07357815653085709,-0.11993073672056198,0.13049395382404327,-0.15492430329322815,-0.05125214904546738,-0.09733972698450089,0.15550899505615234,-0.022632082924246788,-0.04713764414191246,0.14958180487155914,-0.17459680140018463,-0.149061918258667,0.13048304617404938,0.0349712073802948,-0.04033450409770012,-0.12521277368068695,0.1976049244403839,-0.06695239245891571,0.10354577749967575,0.1963735818862915,-0.1509006917476654,-0.1820172816514969,-0.04423649609088898,-0.01677951216697693,-0.09585784375667572,0.17609857022762299,0.007372246589511633,-0.1342829018831253,-0.015848929062485695,0.12377164512872696,-0.16824285686016083,0.01769653894007206,0.1307639330625534,0.18257607519626617,0.13035587966442108,-0.1784840077161789,-0.04355360195040703,-0.05333055555820465,-0.050434187054634094,-0.08582347631454468,0.1084134504199028,0.028017813339829445,0.06955871731042862,-0.07703879475593567,0.006101769395172596,0.09744765609502792,0.1267826110124588,0.0377870537340641,0.13749659061431885,-0.022755134850740433,0.02725263684988022,-0.036713335663080215,-0.13101941347122192,0.05593418702483177,0.04301626235246658,0.06241004168987274,-0.19664913415908813,0.17105595767498016,-0.1608770340681076,-0.0022583226673305035,-0.051368799060583115,0.1887890249490738,-0.04259311035275459,-0.08649397641420364,-0.08640420436859131,-0.12399721890687943,-0.03630957379937172,-0.12994182109832764,0.07005028426647186,0.1978558748960495,-0.09035443514585495,-0.18728181719779968,0.1738688349723816,0.058172523975372314,0.1275353729724884,-0.05914026498794556,-0.12436175346374512,-0.14897094666957855,0.07373868674039841,-0.021059302613139153,0.08249198645353317,0.15453530848026276,0.06739230453968048,0.02646302431821823,0.1050410270690918,0.07111553847789764,0.08499833196401596,0.017405303195118904,-0.12187842279672623,0.015185747295618057,0.17610332369804382,0.16444896161556244,0.032148007303476334,-0.2621661424636841,-0.10518941283226013,-0.13011130690574646,0.033827926963567734,0.0873328372836113,-0.1334182173013687,-0.12892301380634308,-0.06592229008674622,-0.00004649026595870964,0.1574525237083435,0.05149179697036743,-0.13367891311645508,0.08625247329473495,-0.19030241668224335,0.029557108879089355,0.1489216834306717,-0.11731617897748947,-0.14815904200077057,-0.12998178601264954,0.18495076894760132,0.05142576992511749,-0.10286037623882294,0.15072710812091827,-0.13918647170066833,0.011113799177110195,0.07071452587842941,0.1660565882921219,-0.3451273739337921,0.19349925220012665,-0.19303886592388153,0.06567517668008804,0.14744755625724792,-0.12461899220943451,-0.07002526521682739,-0.15233108401298523,0.011602582409977913,-0.1719156950712204,-0.024438433349132538,-0.09913968294858932,-0.06500113755464554,0.10074004530906677,-0.19746935367584229,0.06048824265599251,0.0644381046295166,0.16440320014953613,-0.11314161121845245,0.1844237893819809,0.19977818429470062,-0.005923869088292122,-0.14382249116897583,0.16368354856967926,0.11608357727527618,-0.10058750212192535,-0.19024382531642914,0.048928387463092804,0.08169995248317719,-0.12696047127246857,0.003596835071220994,0.10095593333244324,0.019897164776921272,-0.16788099706172943,0.08666206151247025,0.10769569128751755,0.126448854804039,0.08700326085090637,0.0671350359916687,-0.023244932293891907,-0.01617094688117504,-0.11508291959762573,-0.017147531732916832,0.02831043303012848,-0.039600204676389694,0.14682532846927643,-0.1409013867378235,-0.15025067329406738,-0.050057679414749146,0.08311695605516434,0.11506091058254242,-0.08770521730184555,-0.12934038043022156,-0.0908934473991394,-0.08657335489988327,-0.0991656631231308,-0.06068199500441551,-0.04339149221777916,0.04121239855885506,-0.02031528763473034,0.13297739624977112,0.18103577196598053,-0.10344576090574265,0.0736924260854721,0.19114287197589874,0.16376732289791107,-0.162319615483284,-0.02976195327937603,-0.0789385661482811,0.09581330418586731,-0.041188307106494904,0.0629558265209198,-0.06809455901384354,0.012843677774071693,-0.0910225585103035],[-0.08186304569244385,-0.4768446385860443,-0.017147310078144073,-0.5211967825889587,-0.04822767898440361,0.06033644080162048,0.06490767002105713,-0.5118759870529175,-0.6637732982635498,0.0758407711982727,-0.26602375507354736,0.13967247307300568,0.603790819644928,0.10754527896642685,-0.16443242132663727,0.14505842328071594,-0.1489611566066742,-0.08734976500272751,-0.039392516016960144,-0.20484472811222076,-0.0809657946228981,-0.10789041221141815,-0.054503750056028366,-0.7431274056434631,0.12462226301431656,-0.16964878141880035,0.029101671651005745,0.012688018381595612,-0.003128570271655917,0.1997869610786438,-0.21419136226177216,0.09493476897478104,-0.09670987725257874,0.19736924767494202,-0.1638392060995102,-0.14616480469703674,0.17200613021850586,0.10503111034631729,-0.06435205787420273,0.024461321532726288,0.02683192677795887,-0.006816511508077383,-0.16895994544029236,0.15278886258602142,0.1462443470954895,0.1905842125415802,-0.14445123076438904,-0.18738050758838654,0.016799574717879295,0.18938061594963074,0.0899406298995018,-0.09604834765195847,0.043591685593128204,0.018726568669080734,0.05299738422036171,0.07314375042915344,0.011256719939410686,-0.12136568874120712,-0.09785395115613937,0.003950402606278658,-0.2927667200565338,-0.06447142362594604,0.13441967964172363,-0.16914035379886627,0.1171991378068924,0.13856282830238342,-0.1948072910308838,0.19214816391468048,-0.045244473963975906,0.12291986495256424,-0.06480107456445694,-0.09648357331752777,-0.18417510390281677,0.037500135600566864,0.19878503680229187,-0.16160079836845398,0.12156177312135696,-0.17885500192642212,0.15291047096252441,0.06453801691532135,0.0381031408905983,0.046734508126974106,-0.160696879029274,0.039714962244033813,-0.10632091760635376,-0.14817197620868683,-0.08395298570394516,-0.1775716096162796,0.011177528649568558,0.0703759714961052,-0.04400356858968735,-0.1649467498064041,-0.11082032322883606,0.18836335837841034,0.10410661995410919,0.09340055286884308,-0.028603598475456238,0.19040504097938538,0.024865679442882538,-0.04373950511217117,0.11183711141347885,0.11617805808782578,-0.11405038088560104,-0.07606994360685349,-0.14476317167282104,-0.19173935055732727,0.04126786068081856,0.07529660314321518,-0.0729781910777092,0.03739449754357338,0.012442600913345814,-0.01826651580631733,0.035785265266895294,-0.14398504793643951,0.07101660221815109,-0.22876442968845367,0.1214284673333168,-0.12024348229169846,0.14912715554237366,0.14475728571414948,0.0350448414683342,0.0353599488735199,-0.1145142912864685,-0.17608238756656647,-0.17260977625846863,-0.08162190765142441,-0.041605424135923386,-0.10200028121471405,0.06589064002037048,-0.10413514822721481,0.020733503624796867,-0.12798811495304108,0.13187624514102936,0.10971380770206451,-0.00005743845395045355,0.026028497144579887,0.42038998007774353,0.06402295082807541,-0.42963844537734985,-0.14550845324993134,0.02658282406628132,0.04157162457704544,0.041286736726760864,-0.05226653069257736,0.016883578151464462,0.14998729526996613,0.08333900570869446,-0.02621496468782425,0.12281156331300735,-0.18465736508369446,-0.0666477382183075,-0.033195674419403076,0.1367618590593338,-0.11603238433599472,-0.53510582447052,-0.09827285259962082,-0.21046128869056702,0.18650947511196136,0.04229726269841194,0.03368614614009857,-0.051346443593502045,-0.16546225547790527,-0.08008603751659393,-0.0890103280544281,0.04100916534662247,0.03725805506110191,0.12338785827159882,-0.31277793645858765,0.03390222787857056,-0.003102896735072136,-0.13036295771598816,0.12745997309684753,-0.18967179954051971,-0.0933547243475914,0.09968168288469315,0.08433172106742859,-0.07678235322237015,0.1654416173696518,0.09868336468935013,0.12285173684358597,0.1265205293893814,-0.1570618897676468,-0.03487323597073555,-0.04197888821363449,0.02896011434495449,-0.16886472702026367,0.09852157533168793,-0.13412968814373016,-0.10036036372184753,-0.1911323070526123,-0.14508432149887085,-0.17483414709568024,-0.14188794791698456,0.13805723190307617,-0.12034454941749573,-0.05217649042606354,-0.10035670548677444,0.11818822473287582,-0.16671867668628693,-0.001493280753493309,-0.10895298421382904,-0.11033675819635391,0.12109531462192535,-0.04958106949925423,-0.05924491956830025,0.19595740735530853,-0.1030404269695282,0.002710688626393676,-0.1417791098356247,-0.04803792014718056,-0.16518034040927887,-0.007345149759203196,-0.16216261684894562,0.08342217653989792,-0.07796626538038254,0.11264406144618988,-0.12916581332683563,0.10563040524721146,0.020629186183214188,0.014198483899235725,0.09729383885860443,0.16269554197788239,-0.19189609587192535,0.10114346444606781,0.15193301439285278,0.15848830342292786,0.18785004317760468,0.11746329814195633,-0.1683172583580017,0.08389832824468613,0.10362221300601959,0.08042200654745102,-0.050693027675151825,0.04297725856304169,0.15344634652137756,0.1563728153705597,0.10894688218832016,0.043679654598236084,-0.10532105714082718,0.008993870578706264,-0.08741007000207901,-0.09940116107463837,0.029408341273665428,0.11297312378883362,0.0013485077070072293,-0.048611581325531006,-0.04048626124858856,-0.13171033561229706,0.08643150329589844,0.029911139979958534,0.10635394603013992,-0.028601206839084625,-0.01839509606361389,-0.02472885139286518,-0.1558736264705658,-0.047093961387872696],[0.07179225981235504,-1.1951818466186523,0.16143152117729187,-1.3063759803771973,0.006520275492221117,0.10189639031887054,0.14023441076278687,-1.1719425916671753,-0.859237790107727,0.1377260982990265,-0.7476400136947632,-0.013211575336754322,1.8458970785140991,0.12153355032205582,-0.28481146693229675,-0.09174907952547073,-0.18704164028167725,-0.09068265557289124,0.07422761619091034,-0.023518042638897896,-0.15782657265663147,1.2201718091964722,-0.18134896457195282,-1.5739688873291016,0.1645435243844986,-0.07800581306219101,-0.10935761034488678,-0.1603098213672638,-0.16947701573371887,0.06636868417263031,-1.2294955253601074,0.15418297052383423,-0.05515667423605919,0.12719985842704773,0.19431984424591064,-0.013034231029450893,-0.14591342210769653,0.015132182277739048,-0.1636333167552948,-0.11373940855264664,-0.09035618603229523,-0.16112343966960907,-0.1605975478887558,-0.08141835778951645,0.08012951910495758,-0.13919711112976074,-0.16001546382904053,0.012936959974467754,0.12925401329994202,0.17854717373847961,-0.19751514494419098,-0.21416381001472473,-0.13865812122821808,-0.13124039769172668,0.013219701126217842,0.054858434945344925,0.1824893355369568,0.029045570641756058,0.1684570163488388,-0.1258848011493683,-0.5800843238830566,0.06765551120042801,-0.07349030673503876,0.1784590780735016,0.13630439341068268,-0.15188755095005035,-0.060617513954639435,0.02980779856443405,0.019186653196811676,-0.022973040118813515,0.04859931021928787,0.1542678326368332,0.08148092031478882,-0.11053607612848282,0.1649520993232727,0.190154030919075,-0.14816273748874664,-0.13013677299022675,0.06840041279792786,0.02117629162967205,-0.17545288801193237,-0.09702540934085846,-0.09094047546386719,-0.06883490830659866,-0.12642143666744232,-0.1951266974210739,0.027931297197937965,0.17872144281864166,0.1638936847448349,-0.004819564986974001,-0.047078851610422134,0.1399022936820984,-0.15059520304203033,-0.09871351718902588,0.05463771894574165,0.002950400812551379,-0.005756122060120106,-0.04197046160697937,-0.09373844414949417,0.04658030346035957,0.0850481241941452,-0.14678463339805603,-0.05921793729066849,0.11414969712495804,0.0017262492328882217,0.18112696707248688,-0.09616383910179138,-0.16176773607730865,-0.1777561455965042,-0.1305638700723648,-0.09346511960029602,0.18416617810726166,0.04769159108400345,-0.1567552387714386,-0.15893924236297607,0.07214643806219101,0.0384664349257946,-0.18715974688529968,0.19486036896705627,-0.1688355654478073,-0.1599384844303131,0.1860782653093338,-0.1590898036956787,-0.09689471125602722,-0.6571850776672363,-0.11645291745662689,-0.013635089620947838,0.03246688097715378,0.07305389642715454,0.14278821647167206,-0.1907404661178589,-0.013433663174510002,-0.11545094102621078,-0.09503746032714844,-0.09619712084531784,0.03990233317017555,2.048582077026367,-0.005375364795327187,-2.805771827697754,-0.06369917839765549,-0.1234498992562294,0.04304344207048416,-0.13379840552806854,-0.028457313776016235,-0.1369612067937851,-0.06226227805018425,-0.050200626254081726,2.816298007965088,0.14068327844142914,0.1873360574245453,0.06134174019098282,-0.12368739396333694,-0.001968960277736187,0.15925472974777222,-2.732794761657715,0.18990476429462433,-0.12287736684083939,-0.14898568391799927,-2.0098445415496826,0.17263536155223846,0.164217010140419,-0.03227565810084343,-0.16421009600162506,-0.09798940271139145,0.0745658352971077,1.808685302734375,-0.03301683068275452,-0.7634007930755615,0.08910776674747467,-0.10167989879846573,-0.19398018717765808,-0.11248092353343964,1.6021676063537598,0.05842600390315056,-0.8095080256462097,0.08989706635475159,-0.1693771481513977,0.10514747351408005,0.04216591268777847,0.14576151967048645,0.023770004510879517,-0.9844838380813599,0.00014662632020190358,-0.08051570504903793,0.06800686568021774,0.00867435336112976,-0.027706420049071312,-0.15077152848243713,0.0403740368783474,0.07124625146389008,0.126047745347023,0.02708258293569088,-0.03062838688492775,0.12592969834804535,-0.1811361014842987,-0.0677909106016159,0.09294132888317108,0.1949765682220459,0.061957161873579025,0.15021255612373352,-0.10850117355585098,0.1498158872127533,-0.17574921250343323,0.09107014536857605,0.11368243396282196,-0.02930101752281189,0.02551933377981186,0.11549822241067886,-0.15269964933395386,0.1511591523885727,0.0672045424580574,-0.09940671920776367,0.004345436580479145,0.10365743935108185,0.051495544612407684,-0.12732870876789093,-0.04871554672718048,-0.1904493123292923,-0.12457145005464554,-0.0026309832464903593,-0.03335046023130417,0.18109196424484253,0.12018010020256042,0.1311511993408203,-0.08506759256124496,0.07139617204666138,0.09531375765800476,-0.011647967621684074,-0.1209932342171669,-0.05336698889732361,-0.17809513211250305,0.1335473358631134,-0.037159789353609085,-0.0657232329249382,0.05763919651508331,0.13797976076602936,0.16146805882453918,0.004339921288192272,0.06923478841781616,0.04855578765273094,-0.061404064297676086,0.16039687395095825,0.05441442131996155,0.05427784472703934,0.07130200415849686,-0.03310411795973778,-0.057355135679244995,0.14704450964927673,0.14446522295475006,-0.06776826828718185,-0.11879564821720123,0.011280196718871593,-0.14891664683818817,-0.04349285364151001,0.19581249356269836,-0.08708587288856506],[-0.006020890083163977,-0.6393474340438843,-0.12760746479034424,-0.5524933934211731,0.0052577778697013855,-0.11471860110759735,-0.019628535956144333,0.011098114773631096,1.296118140220642,0.11532346904277802,0.008100204169750214,-0.1568516194820404,-0.6809695959091187,0.055981893092393875,-0.518481433391571,0.1286829113960266,-0.09514185041189194,0.11276194453239441,0.04379044100642204,-0.1721407026052475,-0.12252546846866608,-0.7390316724777222,0.008435237221419811,0.38884130120277405,-0.11851419508457184,-0.07475986331701279,-0.18079960346221924,0.04390167072415352,-0.2851179838180542,-0.16200590133666992,0.1995980441570282,-0.15894556045532227,-0.029956452548503876,-0.06686539202928543,-0.0856003537774086,-0.06838534772396088,-0.07944487035274506,0.1446451097726822,-0.03873853757977486,-0.07311835885047913,0.02048567496240139,0.19417209923267365,0.11577943712472916,0.06804540753364563,0.003970236051827669,-0.07670743763446808,0.11047949641942978,0.1640157401561737,-0.13243255019187927,0.1907479465007782,0.17339077591896057,-0.05525863543152809,-0.0661374181509018,0.17328418791294098,-0.07693477720022202,0.03308773413300514,-0.18216024339199066,-0.12267767637968063,-0.1507808119058609,0.024879295378923416,-0.093948595225811,0.19659391045570374,-0.062108900398015976,0.13068386912345886,0.1837618052959442,0.13828405737876892,0.025704847648739815,0.12699097394943237,-0.0022285820450633764,0.03741379827260971,0.15092764794826508,-0.024647187441587448,-0.14919258654117584,-0.12326081097126007,0.018100624904036522,0.0804997906088829,0.1609877049922943,-0.06841897964477539,-0.021392643451690674,-0.07621605694293976,-0.18847626447677612,-0.06872586905956268,-0.01710137538611889,0.1561345010995865,0.0026069683954119682,0.12735603749752045,-0.05370969697833061,-0.014055824838578701,0.19223417341709137,-0.11945992708206177,0.07196633517742157,0.037857722491025925,0.11229133605957031,-0.07976850867271423,-0.13630029559135437,0.08244446665048599,-0.10131842643022537,-0.12248970568180084,0.11500281095504761,-0.12827016413211823,0.06801892817020416,-0.12281495332717896,0.05257164314389229,0.026574326679110527,0.012497268617153168,0.0885218009352684,-0.009688793681561947,-0.0102012287825346,-0.00972979236394167,0.17366723716259003,0.1802501380443573,0.06426867097616196,0.08123812079429626,0.15559057891368866,-0.053482864052057266,-0.020957153290510178,-0.01888321340084076,0.22292177379131317,0.1810598522424698,0.11749223619699478,0.02050245739519596,0.1415913850069046,-0.17706945538520813,0.11228256672620773,-0.2065703123807907,0.0835135206580162,0.021986637264490128,0.03484705463051796,0.11439446359872818,-0.07988810539245605,0.07045718282461166,0.18991203606128693,0.06831927597522736,0.15524567663669586,0.009806194342672825,-0.04953775182366371,-0.40980690717697144,-0.03521228954195976,0.22672738134860992,-0.15948642790317535,-0.012827199883759022,-0.1610124409198761,0.0758165717124939,0.15162645280361176,0.012908928096294403,-0.057485152035951614,0.05419231578707695,-0.031136484816670418,-0.011654018424451351,-0.07261703163385391,-0.03205918148159981,0.031834300607442856,-0.024016257375478745,0.03704630956053734,-0.13861346244812012,-0.026743292808532715,0.11848654597997665,-0.02522614225745201,0.006645143497735262,0.18431463837623596,0.06802765280008316,-0.16987855732440948,-0.18225246667861938,-0.10313434153795242,0.018614184111356735,-0.5866155028343201,-0.02273760363459587,-0.1867954134941101,0.12914901971817017,-0.012974347919225693,-0.1664230078458786,0.18535105884075165,-0.18439140915870667,-0.1557684987783432,0.11987929791212082,-0.026224864646792412,-0.1927582025527954,0.1869128942489624,-0.055266059935092926,0.10404269397258759,-0.15911050140857697,-0.25748127698898315,-0.13875740766525269,-0.09761923551559448,0.1421690285205841,-0.054612502455711365,-0.09466725587844849,0.08820284157991409,0.02280585654079914,0.09007823467254639,-0.19343213737010956,0.13655540347099304,0.19214226305484772,0.05645277723670006,-0.003949254285544157,-0.18153706192970276,0.10255531221628189,-0.10004973411560059,-0.09117471426725388,0.07620157301425934,0.06741167604923248,0.14293760061264038,0.1628909856081009,-0.11873893439769745,0.05174572393298149,0.15582038462162018,-0.19733193516731262,-0.020590756088495255,-0.13032376766204834,0.007638733368366957,0.07918749004602432,-0.02219279855489731,0.07769324630498886,0.14418497681617737,-0.09249237924814224,0.08297420293092728,0.05367394909262657,-0.18047241866588593,0.09285784512758255,-0.11817295849323273,0.1915760189294815,0.127696231007576,0.15994618833065033,0.04663265496492386,0.13074468076229095,-0.019107474014163017,-0.10673811286687851,-0.11460015922784805,-0.016716409474611282,0.15717223286628723,-0.023406988009810448,-0.1518792361021042,-0.1311345398426056,-0.12361588329076767,-0.05811575427651405,0.19848839938640594,-0.05447063595056534,-0.19351422786712646,0.03478631004691124,-0.031290438026189804,0.12796778976917267,-0.010342609137296677,0.02712184004485607,0.07874037325382233,-0.12672939896583557,0.06991486996412277,0.12043215334415436,-0.19771431386470795,0.14305873215198517,-0.19869910180568695,-0.15893298387527466,-0.18986815214157104,0.09915359318256378,-0.11793739348649979,-0.026950793340802193,0.1685478538274765],[-0.02240133471786976,-0.3731837570667267,-0.1114073172211647,-0.5458083152770996,0.05825120955705643,0.08276380598545074,-0.07155698537826538,-0.7334137558937073,0.04796738550066948,0.1855861246585846,-0.21989795565605164,0.10354200750589371,0.011593816801905632,-0.07925905287265778,-0.29997238516807556,0.004105984233319759,0.06678616255521774,0.1822556108236313,-0.002538007451221347,-0.13073645532131195,-0.09609699249267578,-0.7571601867675781,-0.09658493101596832,-0.14210505783557892,-0.0746023878455162,-0.17736178636550903,0.17545178532600403,-0.04659535363316536,-0.20559489727020264,-0.176886186003685,0.19398589432239532,0.03941287100315094,0.13324756920337677,0.1961027979850769,0.0377984382212162,0.007078546565026045,-0.1793791800737381,0.06100240722298622,0.031638920307159424,0.021084725856781006,-0.17785616219043732,0.02241850085556507,-0.07535964250564575,0.16734077036380768,-0.14840905368328094,0.08854229003190994,0.08214636892080307,0.07728155702352524,0.08702534437179565,0.06851270794868469,0.02409370243549347,-0.11022087186574936,-0.041081346571445465,0.15710529685020447,0.08049288392066956,-0.18936556577682495,-0.09374433010816574,-0.1532883495092392,0.19338539242744446,-0.16392269730567932,-0.4800221025943756,0.1140180379152298,0.062775619328022,0.049431752413511276,0.19373564422130585,-0.040277812629938126,-0.10922738909721375,0.049704112112522125,-0.17568184435367584,-0.06713319569826126,-0.1135365292429924,0.1779109239578247,0.15910887718200684,0.0068941861391067505,-0.02233724296092987,0.15134930610656738,-0.16691505908966064,0.15833859145641327,0.10007096081972122,0.18856629729270935,-0.1107906848192215,-0.0844927504658699,-0.1900092363357544,0.02195080555975437,0.05605708062648773,0.19162839651107788,0.1306803971529007,-0.1764025092124939,0.16609250009059906,0.06826869398355484,-0.10988681763410568,0.05471092090010643,-0.06254059076309204,-0.15694113075733185,-0.0018987084040418267,0.020063204690814018,0.1751517355442047,0.11051887273788452,0.014300620183348656,0.07748007774353027,-0.05444162338972092,-0.1388128399848938,0.1756840944290161,0.06376545131206512,-0.08750814944505692,0.1442185491323471,0.023128418251872063,0.0798424631357193,0.1206355094909668,0.09697846323251724,-0.1934599131345749,-0.13677427172660828,-0.15079058706760406,0.035578805953264236,-0.03152676299214363,0.0005146038602106273,0.1445225477218628,0.12437433004379272,0.18090885877609253,-0.13254573941230774,-0.07326886802911758,0.006485318765044212,0.06029979884624481,0.0028630560263991356,-0.3028373420238495,-0.029328377917408943,-0.003592411521822214,-0.12129230052232742,0.0650138333439827,-0.13099271059036255,0.1282670646905899,-0.08389593660831451,-0.1303277164697647,-0.11773298680782318,-0.09207428246736526,-0.10244296491146088,-0.01593710109591484,-0.008840843103826046,-0.3733469247817993,-0.1896084100008011,-0.024232735857367516,0.038953252136707306,0.11719541996717453,0.05313911288976669,0.1754506379365921,-0.27952539920806885,-0.09222538769245148,-0.04559291899204254,0.1712838113307953,0.05330796539783478,0.09866747260093689,0.04620382934808731,-0.1349254548549652,-0.18275724351406097,-0.39653733372688293,0.05292888358235359,0.20364105701446533,-0.06508154422044754,-0.2592735290527344,0.08345770835876465,-0.1296958178281784,0.06545925885438919,0.1451844871044159,-0.11958535760641098,0.09576684236526489,-0.10667227953672409,-0.17015837132930756,0.16365547478199005,0.0841805562376976,-0.06998484581708908,0.0031085682567209005,0.005106416530907154,0.13027729094028473,-0.14315707981586456,0.15389476716518402,0.12938784062862396,-0.16893117129802704,-0.07631117850542068,-0.06101193279027939,0.010333565063774586,-0.09655280411243439,-0.6016691327095032,0.09956612437963486,0.0779731273651123,0.01370856910943985,-0.10884876549243927,0.046063147485256195,-0.0862940326333046,0.016886871308088303,-0.13068418204784393,0.07672128826379776,-0.10676104575395584,-0.10078183561563492,0.17122392356395721,0.02776399999856949,-0.18964198231697083,0.17092859745025635,-0.0813189223408699,0.002154023852199316,0.18895255029201508,0.1776449978351593,-0.005262591410428286,0.06634017080068588,-0.08282586932182312,-0.023331567645072937,-0.12161807715892792,-0.07076530158519745,0.04895162582397461,-0.17559677362442017,-0.10231176763772964,-0.03905986249446869,0.012470954097807407,-0.11026059091091156,-0.10380370914936066,-0.09144257009029388,-0.047554582357406616,0.042330302298069,0.005263160448521376,-0.026013877242803574,0.0659577026963234,0.018758786842226982,-0.1878756880760193,0.049683477729558945,0.050173863768577576,0.059649161994457245,0.012450385838747025,0.10291613638401031,-0.12085220962762833,0.04596678912639618,-0.052019599825143814,0.1952478587627411,-0.09665899723768234,0.0932428389787674,-0.08340379595756531,-0.08831478655338287,-0.10499829053878784,-0.1680755913257599,0.14689525961875916,-0.11349282413721085,-0.12005596607923508,-0.15814423561096191,0.012744885869324207,0.12382442504167557,-0.02363676019012928,0.0763697400689125,-0.18460024893283844,0.09410238265991211,0.14826881885528564,-0.19877293705940247,0.015055100433528423,-0.15377028286457062,-0.02692442014813423,0.19886910915374756,0.00329270726069808,-0.183816596865654,0.18718984723091125],[-0.10900679975748062,-0.641162633895874,-0.09553002566099167,-0.42568114399909973,0.1468716710805893,0.15986575186252594,0.0969398245215416,-0.4540899693965912,-0.5348488688468933,-0.14725714921951294,0.07927250862121582,-0.13637684285640717,0.09948332607746124,-0.034036628901958466,-0.26647675037384033,0.10466541349887848,0.1737973392009735,0.045332375913858414,0.14244940876960754,0.010077083483338356,-0.16388490796089172,0.15652517974376678,0.07371050864458084,-0.6732668876647949,-0.166121244430542,0.07305898517370224,0.04516182839870453,-0.011066756211221218,0.2600666880607605,0.16160957515239716,-0.06376305222511292,0.1520000845193863,0.07068460434675217,-0.07726311683654785,0.08496309816837311,0.16740480065345764,-0.06544971466064453,-0.0324319452047348,0.03385036811232567,-0.017498182132840157,-0.17044229805469513,-0.0184031929820776,0.04017620161175728,-0.1166672334074974,0.19290591776371002,0.027655476704239845,-0.18971745669841766,-0.05893636867403984,-0.09833144396543503,0.165896937251091,0.02555791102349758,-0.17638741433620453,0.008529888466000557,-0.0341244712471962,0.14198318123817444,-0.02916146069765091,-0.11014258861541748,0.00285381474532187,-0.1637631505727768,0.07449956983327866,-0.37459486722946167,0.03458710014820099,-0.013949355110526085,0.167466402053833,-0.08169494569301605,0.1263643056154251,0.18724215030670166,-0.08964608609676361,-0.09844513237476349,-0.15367746353149414,-0.06937117129564285,0.19788120687007904,0.16910836100578308,-0.05253342166543007,-0.026972204446792603,0.043632157146930695,0.08525305986404419,0.014665252529084682,-0.10641827434301376,0.17169301211833954,-0.005639807321131229,-0.1748388558626175,0.0879720151424408,0.0042793829925358295,-0.012662539258599281,0.00230719824321568,0.08438607305288315,-0.041964754462242126,-0.08136360347270966,0.16164736449718475,-0.16100065410137177,0.14142127335071564,-0.14710211753845215,-0.16710329055786133,-0.15785492956638336,0.049099043011665344,0.10271574556827545,-0.19043958187103271,0.0786149725317955,-0.035488661378622055,0.09175798296928406,0.01233464851975441,-0.09491364657878876,0.01644045300781727,-0.037259023636579514,-0.12387353181838989,-0.15133585035800934,0.07678841054439545,0.15945707261562347,0.022336047142744064,0.18956530094146729,-0.038394685834646225,-0.13731537759304047,-0.17234018445014954,0.1213948205113411,0.10994064062833786,0.19199015200138092,0.1484251618385315,-0.01643522083759308,0.03861446678638458,-0.00812050886452198,-0.025671694427728653,-0.021238069981336594,-0.12347811460494995,-0.19088442623615265,0.08462372422218323,-0.19243130087852478,-0.022094547748565674,-0.13637541234493256,0.0885918065905571,0.07976590096950531,0.1295212209224701,-0.18293951451778412,-0.07798292487859726,0.13917607069015503,0.16520826518535614,0.20300118625164032,0.13817571103572845,-0.4449840188026428,-0.14899855852127075,0.1671113669872284,-0.07344762980937958,-0.061434317380189896,-0.0034539957996457815,-0.028842102736234665,0.10458378493785858,0.0002950815251097083,-0.10544367134571075,-0.14652769267559052,0.17461137473583221,0.14344798028469086,0.06287482380867004,-0.17100690305233002,0.10956370830535889,-0.5487038493156433,0.1439242959022522,-0.20285160839557648,-0.07283029705286026,-0.07308973371982574,0.15698838233947754,-0.004574977792799473,0.13509604334831238,-0.11196381598711014,-0.16709041595458984,-0.11447524279356003,-0.19456490874290466,-0.18441523611545563,-0.048569824546575546,0.03980662301182747,0.14347003400325775,-0.0294563677161932,-0.1658269166946411,-0.04937383159995079,-0.1129506304860115,-0.0338466539978981,0.043048981577157974,0.11177250742912292,0.1712973415851593,0.03515270724892616,0.06316608190536499,0.03776998445391655,-0.19521883130073547,0.08707359433174133,0.03318217024207115,-0.008141596801578999,-0.025629591196775436,-0.1947784423828125,0.029744768515229225,0.07004381716251373,-0.12705864012241364,-0.029259447008371353,-0.08123225718736649,-0.05083668231964111,-0.16418667137622833,-0.10993774235248566,0.07354781776666641,0.13978558778762817,0.19544194638729095,0.010640365071594715,0.1548675298690796,-0.0725283995270729,0.026261908933520317,-0.01725555770099163,0.149529367685318,0.1775684952735901,0.18890199065208435,-0.16332030296325684,0.14504295587539673,0.06784693896770477,0.03608612343668938,-0.10215997695922852,-0.12561342120170593,0.08950718492269516,0.057499226182699203,-0.16430263221263885,-0.017074452713131905,0.014874978922307491,0.19351844489574432,0.09823426604270935,-0.1568288654088974,-0.14654910564422607,-0.0175345279276371,0.14632366597652435,0.1408010721206665,0.11916311830282211,-0.05364192649722099,-0.0647226944565773,-0.0769268348813057,0.19299769401550293,0.07171745598316193,-0.11308954656124115,-0.03345108404755592,0.16570037603378296,-0.17998673021793365,0.19278083741664886,0.11767412722110748,0.015164600685238838,-0.17612899839878082,-0.1911386251449585,-0.15741057693958282,0.1982448548078537,0.07949168235063553,0.15575426816940308,-0.008538619615137577,-0.1992359161376953,-0.1955116093158722,0.07605613023042679,0.03949027881026268,-0.03634146600961685,-0.15011315047740936,-0.12107323110103607,-0.050504136830568314,-0.16873013973236084,0.036453623324632645,0.046786077320575714,0.18335632979869843],[0.05290888622403145,-0.46544942259788513,0.14354592561721802,-0.34243547916412354,0.1899191290140152,0.16925279796123505,-0.16645392775535583,-0.6326579451560974,-0.5312782526016235,-0.010482839308679104,-0.20911253988742828,-0.029088540002703667,0.25590384006500244,0.10500612109899521,-0.25715622305870056,-0.024239975959062576,0.10927366465330124,0.12374520301818848,0.13787607848644257,0.037547361105680466,0.12368439137935638,0.4398342967033386,0.045194514095783234,-1.1848698854446411,0.08648866415023804,0.14787307381629944,-0.06202153116464615,0.14502355456352234,0.40233734250068665,0.08936752378940582,-0.4553416669368744,0.1297570914030075,0.029643932357430458,0.08296937495470047,0.10737217962741852,0.046884723007678986,-0.15037892758846283,0.1113380566239357,-0.08935333788394928,0.008957148529589176,-0.12713375687599182,-0.038763247430324554,-0.06287283450365067,0.14021329581737518,0.17889173328876495,-0.029296671971678734,0.11701251566410065,-0.12559010088443756,-0.013723441399633884,-0.048991527408361435,-0.05173009634017944,0.07985955476760864,0.01848314143717289,0.0018530474044382572,0.07919562608003616,0.17623676359653473,0.08798661082983017,0.11027801036834717,0.15816786885261536,-0.07373545318841934,-0.09815684705972672,-0.10358922183513641,0.028163066133856773,-0.05209255591034889,0.08190972357988358,-0.18891583383083344,0.04819651320576668,-0.10135342180728912,0.057503651827573776,-0.049991656094789505,0.16541190445423126,-0.10801669955253601,0.07890783995389938,0.04450297728180885,0.12664742767810822,0.017398346215486526,0.11514566093683243,0.0011529329931363463,0.09362287074327469,-0.10421957820653915,0.12735363841056824,0.026217103004455566,0.024758758023381233,-0.034161973744630814,0.15556950867176056,0.046976618468761444,-0.14324897527694702,0.0820375457406044,0.14706966280937195,-0.12723205983638763,0.022037720307707787,0.027780352160334587,0.18015174567699432,0.1355963498353958,0.15255340933799744,0.042018014937639236,-0.09817542135715485,-0.14822988212108612,-0.10718434303998947,-0.01198161207139492,-0.14569762349128723,0.1846718192100525,-0.05440346896648407,0.16732770204544067,-0.19356553256511688,-0.13721467554569244,0.09955985844135284,-0.055573951452970505,0.03129265084862709,-0.14823055267333984,-0.08049149811267853,0.08323678374290466,-0.040422696620225906,0.14973397552967072,0.12536847591400146,-0.13593535125255585,-0.026522912085056305,0.021740702912211418,-0.1287768930196762,0.17868605256080627,0.017956702038645744,0.19495145976543427,-0.12224224954843521,0.08697464317083359,-0.3360134959220886,0.11792145669460297,-0.015550997108221054,0.1580323874950409,-0.043677568435668945,0.17827069759368896,-0.14034296572208405,-0.16540613770484924,0.08971297740936279,-0.04240899905562401,0.03538896143436432,0.02517043985426426,0.14525386691093445,-0.1694253534078598,-0.44355788826942444,-0.06566213816404343,0.11731340736150742,-0.07583947479724884,-0.00827217847108841,0.11626257747411728,-0.06893549859523773,0.015716848894953728,-0.06510480493307114,0.3861304521560669,0.1289910525083542,0.07581828534603119,-0.10865729302167892,-0.18407580256462097,-0.025396090000867844,-0.046783447265625,-0.8698626160621643,0.05720290541648865,-0.5611950755119324,-0.15160059928894043,0.08152702450752258,-0.08908506482839584,-0.06941328197717667,-0.1545940786600113,0.12061164528131485,0.12442722916603088,0.0997820720076561,0.44919553399086,-0.02787322737276554,-0.3820130527019501,0.18517522513866425,0.04291578382253647,-0.16327345371246338,0.16682487726211548,-0.3097407817840576,0.08126137405633926,0.21637113392353058,0.18044042587280273,0.18581527471542358,0.05833447724580765,-0.07943905889987946,-0.0655074268579483,-0.018331633880734444,-0.22964656352996826,-0.13115951418876648,0.0537567175924778,-0.17933695018291473,-0.18135978281497955,-0.07508910447359085,-0.15229547023773193,0.008374682627618313,-0.06730280816555023,-0.05429274961352348,-0.029470281675457954,-0.06935237348079681,-0.19121268391609192,0.13867847621440887,0.16287623345851898,-0.1644943654537201,0.16762018203735352,0.0829789787530899,-0.026619520038366318,0.04191337898373604,-0.10698462277650833,-0.15783658623695374,-0.02116917073726654,0.08799728751182556,-0.10062313079833984,0.19645507633686066,0.0032420754432678223,0.061984721571207047,-0.18814682960510254,0.004242855589836836,0.007402801886200905,-0.04187391325831413,-0.1676117479801178,0.1120634451508522,0.09473111480474472,-0.14261077344417572,0.15320642292499542,-0.14001202583312988,0.08666941523551941,-0.18560105562210083,-0.16830235719680786,-0.09425223618745804,0.09875764697790146,-0.01189882680773735,0.10070051997900009,-0.17513352632522583,-0.11748490482568741,0.09087789058685303,-0.14205795526504517,0.10144621878862381,-0.18483690917491913,0.13478536903858185,0.041267313063144684,0.09654021263122559,-0.14907555282115936,0.18570782244205475,-0.16552716493606567,-0.186510369181633,0.047621987760066986,-0.09016028046607971,0.16261984407901764,-0.18238255381584167,-0.06914278864860535,0.02411719039082527,-0.16309700906276703,0.03950614854693413,0.07500997930765152,-0.12458967417478561,-0.027313951402902603,-0.07957896590232849,-0.08664367347955704,-0.06991241872310638,-0.16129684448242188,0.0003422162844799459,-0.13923507928848267],[-0.12024719268083572,-0.4998264014720917,-0.03518519923090935,-0.8201735615730286,-0.11060584336519241,-0.053482748568058014,-0.19194410741329193,-0.23637032508850098,0.9211061596870422,-0.1599804162979126,-0.04984813183546066,-0.026461081579327583,-0.7695600390434265,0.054986122995615005,-0.34554797410964966,-0.1428637057542801,-0.17900227010250092,-0.0681181252002716,-0.16323421895503998,0.07615731656551361,-0.12223388999700546,-0.7694340348243713,0.158609077334404,0.40367376804351807,-0.0936485230922699,-0.1379787027835846,0.14406070113182068,0.03102828934788704,-0.668084442615509,-0.06682787090539932,0.28952011466026306,-0.09480487555265427,-0.036369290202856064,0.09027755260467529,0.005239645019173622,0.028762372210621834,0.04278767481446266,-0.1827172338962555,-0.1868828535079956,0.004264808259904385,0.03000669926404953,-0.14332231879234314,-0.1673218011856079,-0.10521835833787918,-0.15989626944065094,-0.03543609008193016,-0.09921888262033463,-0.1655777394771576,0.002832691418007016,-0.1173848807811737,0.016096269711852074,-0.1428382396697998,-0.15254972875118256,-0.10087687522172928,0.031123828142881393,0.18210454285144806,-0.15056340396404266,0.0389724001288414,-0.13049833476543427,-0.020536577329039574,-0.07252628356218338,0.021544713526964188,0.17876872420310974,-0.14914248883724213,-0.0974835604429245,0.1782589703798294,0.17258140444755554,-0.18783892691135406,-0.14627037942409515,0.16296152770519257,-0.07306186854839325,-0.1462646722793579,-0.11821091920137405,-0.011888578534126282,-0.06482629477977753,0.10277752578258514,0.04482898861169815,0.11084602028131485,-0.09544410556554794,-0.06729365140199661,-0.08102763444185257,-0.004591159988194704,0.05033886805176735,0.06813237816095352,0.06351197510957718,-0.041656047105789185,0.1481541246175766,-0.17496292293071747,0.051103375852108,-0.1246718168258667,-0.11130067706108093,-0.15279226005077362,-0.0001695943792583421,-0.09906019270420074,0.0872306153178215,-0.1569601148366928,-0.09468789398670197,-0.16918452084064484,0.05264005437493324,-0.10969574004411697,0.1299758106470108,-0.1238614171743393,-0.1499445140361786,-0.16228756308555603,-0.12864555418491364,-0.03088453598320484,0.15194952487945557,-0.16059310734272003,-0.1196131780743599,0.17957358062267303,0.011497033759951591,0.07462433725595474,-0.03821161761879921,0.15181437134742737,0.15129677951335907,-0.1262131780385971,0.1976640522480011,0.07882794737815857,0.025421787053346634,-0.1382593959569931,0.06669817864894867,-0.16506049036979675,-0.03296738490462303,0.05430860072374344,-0.015042793937027454,-0.03754129260778427,0.16764642298221588,-0.12914329767227173,-0.07502639293670654,-0.0644611269235611,-0.10510620474815369,-0.14361442625522614,-0.1472604125738144,0.09882596880197525,0.11332618445158005,0.01770639419555664,-0.48855483531951904,0.10956402868032455,0.20754416286945343,0.1925523430109024,0.1260720044374466,-0.015433630906045437,0.11367352306842804,-0.06619863957166672,-0.15435627102851868,-0.28949451446533203,-0.09061797708272934,-0.12183187901973724,-0.08696726709604263,-0.0521501861512661,-0.1537703424692154,-0.1464386284351349,0.0487082302570343,-0.04734097048640251,-0.03988681733608246,0.000006014335212967126,0.052024006843566895,-0.14887037873268127,-0.024536261335015297,0.10266859829425812,0.12003609538078308,-0.178510382771492,-0.11524396389722824,-0.13401289284229279,0.12451600283384323,-0.4958034157752991,-0.1408887356519699,-0.29980307817459106,-0.0326106995344162,0.06722390651702881,-0.09236352145671844,0.13698559999465942,-0.09071260690689087,-0.048653312027454376,-0.16668368875980377,-0.05644301325082779,-0.024378865957260132,0.03978146240115166,-0.037808679044246674,-0.18191471695899963,-0.09959417581558228,-0.18668273091316223,0.17331191897392273,0.14727149903774261,-0.14965768158435822,0.08263804018497467,0.08672957867383957,0.06024635583162308,0.11001214385032654,0.18410924077033997,0.1653447151184082,-0.14256757497787476,-0.007845128886401653,0.18623723089694977,-0.08987041562795639,0.09596691280603409,0.15359973907470703,-0.19130438566207886,0.11425486207008362,-0.03776461258530617,-0.07419872283935547,-0.054346781224012375,-0.053519949316978455,-0.19094672799110413,-0.10830281674861908,-0.033138975501060486,-0.09228987246751785,0.055152490735054016,-0.05329638719558716,0.02945558726787567,-0.025025958195328712,0.04989458993077278,0.15336017310619354,-0.04602746292948723,-0.13848572969436646,0.06676831096410751,-0.10715686529874802,-0.153800368309021,0.1892128437757492,0.13722540438175201,-0.046176180243492126,0.16775299608707428,0.11451035737991333,-0.06163465976715088,-0.013190560042858124,-0.137891486287117,-0.16081073880195618,-0.018242869526147842,-0.0016200505197048187,0.11139706522226334,0.05186319723725319,-0.1826053410768509,0.18462932109832764,0.12286606431007385,0.08164671063423157,-0.0808984637260437,-0.061052389442920685,-0.054327331483364105,0.003926397766917944,0.18522368371486664,0.050253670662641525,0.1963905692100525,-0.019702663645148277,-0.18870055675506592,0.1642962545156479,0.1638864129781723,-0.11547402292490005,-0.18940550088882446,-0.15637773275375366,0.1897563338279724,-0.06086102873086929,0.15589281916618347,-0.17755171656608582,-0.014664621092379093,-0.08180317282676697,0.13938702642917633],[-0.0014188324566930532,-0.7583467364311218,-0.16724815964698792,-0.786165714263916,-0.012783949263393879,0.11837539821863174,0.19168339669704437,-0.5327616930007935,0.4368540048599243,0.18326333165168762,0.16753651201725006,-0.14070865511894226,-0.5184129476547241,-0.045538194477558136,-0.2558092176914215,-0.06813347339630127,-0.05066252872347832,0.15778735280036926,0.01762591302394867,0.019701411947607994,0.04830348491668701,-0.5025458931922913,-0.10153491050004959,-0.6146802306175232,-0.05850241333246231,0.11575309932231903,-0.00645017996430397,-0.07015066593885422,-0.24051807820796967,0.11071280390024185,-0.12203174829483032,0.07344938069581985,0.13458873331546783,-0.0811915323138237,0.19638216495513916,-0.13513971865177155,-0.05308329686522484,-0.1264873743057251,0.07340545207262039,0.09610959142446518,0.06299203634262085,0.13020452857017517,0.006461190991103649,-0.0298578143119812,-0.1427117884159088,0.17870725691318512,-0.040403809398412704,-0.06577025353908539,-0.19800342619419098,-0.11657636612653732,-0.12643355131149292,0.09476028382778168,-0.04395309090614319,-0.16200950741767883,-0.04139583930373192,-0.02843383513391018,-0.05061228945851326,-0.19101136922836304,0.19545000791549683,-0.04860036075115204,-0.48070019483566284,-0.02909873239696026,0.10310296714305878,0.0018963898764923215,0.0365653932094574,-0.11153806746006012,-0.07063169777393341,0.09790248423814774,-0.033563971519470215,0.08735548704862595,0.18158717453479767,-0.09765420109033585,-0.19185544550418854,-0.17867511510849,-0.1379062533378601,0.13597507774829865,-0.19097113609313965,0.13844776153564453,0.008163230493664742,0.10334313660860062,0.03372592106461525,-0.028341712430119514,-0.04061390832066536,-0.0928572490811348,-0.12101192027330399,0.15959985554218292,0.035288821905851364,0.02204122580587864,-0.02104990929365158,-0.14904409646987915,-0.1884383112192154,0.12934765219688416,0.04292050749063492,-0.10378759354352951,0.15390120446681976,-0.07789327949285507,-0.150027334690094,0.1723162978887558,0.024739669635891914,-0.04500174522399902,0.15764069557189941,0.06696110963821411,-0.0002772715233732015,0.05805947631597519,-0.1956019401550293,-0.08880644291639328,-0.14791248738765717,-0.09930552542209625,-0.14706692099571228,-0.05132688209414482,-0.04815968871116638,0.14968809485435486,-0.08072185516357422,0.17023833096027374,0.1914360672235489,-0.20909073948860168,0.006128992885351181,0.1045558974146843,-0.11174434423446655,-0.09947788715362549,-0.10515245050191879,0.17475855350494385,-0.16185031831264496,-0.17787007987499237,-0.2319953441619873,0.10823503881692886,0.07657778263092041,-0.09105123579502106,0.03496715426445007,0.045567385852336884,0.06818459928035736,-0.004964624065905809,-0.03567572683095932,0.1985824555158615,-0.09788661450147629,0.1221398115158081,0.25968578457832336,-0.1184980720281601,-0.4954495131969452,0.03762570396065712,-0.20294176042079926,0.1983392834663391,-0.13982874155044556,-0.10194888710975647,-0.1971047818660736,-0.14954571425914764,0.09349898993968964,-0.06463697552680969,-0.13337016105651855,-0.0057785408571362495,-0.10040290653705597,-0.13774698972702026,0.038658976554870605,0.06692767888307571,-0.015304483473300934,-0.06149091199040413,-0.22508841753005981,-0.01980517990887165,0.5627535581588745,0.08914753049612045,-0.12765848636627197,-0.024657635018229485,-0.021739760413765907,-0.1115509420633316,0.16016072034835815,-0.22955584526062012,0.009467950090765953,-0.5203735828399658,0.09998973459005356,0.10064324736595154,0.13604415953159332,-0.009262827225029469,-0.29790565371513367,-0.18173722922801971,0.09552305191755295,0.17887255549430847,0.14540904760360718,0.13128089904785156,0.036359913647174835,-0.1284274309873581,0.005043844226747751,0.08900734782218933,-0.03363751247525215,0.1922888457775116,-0.09040966629981995,-0.12715566158294678,-0.13179710507392883,0.10308011621236801,0.13920460641384125,0.1892642378807068,-0.1059555932879448,0.13233065605163574,0.03474905341863632,-0.09143557399511337,0.1422591656446457,0.09429188072681427,-0.08873714506626129,0.13865800201892853,-0.05955515801906586,-0.16296951472759247,-0.14811943471431732,-0.10728473216295242,0.12384585291147232,-0.10707870125770569,0.09981977194547653,0.03917441889643669,-0.16991572082042694,0.1308167576789856,0.15805989503860474,0.10435714572668076,0.13367009162902832,-0.09408915787935257,0.1842760294675827,-0.09014883637428284,-0.13564926385879517,-0.17163607478141785,0.029830677434802055,0.13382050395011902,0.04694337025284767,-0.07322177290916443,-0.11515317112207413,0.08979019522666931,-0.08992944657802582,-0.1449616551399231,-0.03842020034790039,0.09286598861217499,-0.13171596825122833,-0.09655609726905823,-0.16333825886249542,-0.03600362688302994,-0.13327568769454956,-0.1347084790468216,-0.0204226765781641,0.17854107916355133,-0.1755710393190384,-0.1495543122291565,-0.14213646948337555,0.019511772319674492,0.15482527017593384,0.059187211096286774,0.17785027623176575,-0.03775857761502266,-0.1925850659608841,0.117307648062706,-0.03039519302546978,0.09616211801767349,-0.12256684899330139,-0.08785802125930786,0.1554843634366989,-0.14441558718681335,0.012679780833423138,-0.15896330773830414,-0.06016770377755165,0.01569751650094986,-0.060325976461172104,0.042555153369903564],[-0.15570726990699768,-0.8106637001037598,0.04656732454895973,-0.28038108348846436,-0.017186304554343224,0.06075802445411682,0.13704529404640198,-0.007694613188505173,1.5048151016235352,0.017487693578004837,-0.23090825974941254,-0.17041414976119995,-0.6152420043945312,-0.04045543819665909,-0.7331058382987976,-0.0009814673103392124,-0.09726142883300781,-0.15282182395458221,0.023740092292428017,0.010187880136072636,-0.11867261677980423,-0.6772342324256897,0.18746091425418854,0.524582028388977,0.07646913081407547,0.19263477623462677,0.16988056898117065,0.12057975679636002,-0.34835633635520935,-0.020772451534867287,-0.2947256863117218,0.005033676512539387,0.1878737062215805,0.00011815933248726651,0.029251905158162117,-0.15733250975608826,0.12440911680459976,-0.09191247820854187,0.11344381421804428,-0.17520740628242493,0.07763507217168808,0.047663696110248566,0.010454257018864155,0.07714789360761642,-0.17423014342784882,0.029510125517845154,-0.0708971619606018,0.058845967054367065,0.044119808822870255,0.080967977643013,-0.0018650857964530587,0.20790934562683105,0.038458555936813354,0.13086169958114624,-0.14203757047653198,0.02379509061574936,0.16226813197135925,-0.05782288685441017,0.020315418019890785,0.1824074387550354,-0.08562038093805313,-0.14923126995563507,-0.02882985770702362,0.14500562846660614,0.18310019373893738,0.02868417464196682,-0.1325061172246933,-0.016604289412498474,0.1588892787694931,0.025168180465698242,-0.05140332505106926,0.05756160989403725,0.10759316384792328,0.0024209441617131233,-0.16572755575180054,0.06961008161306381,-0.13285920023918152,0.11216908693313599,0.02220899611711502,-0.11821281909942627,-0.1401035487651825,-0.13289250433444977,0.045098043978214264,-0.1193317174911499,0.19622212648391724,-0.0966934859752655,-0.14488470554351807,0.06783389300107956,0.00956678669899702,0.17853587865829468,0.08250173181295395,-0.06935543566942215,-0.07571069151163101,-0.10218562185764313,-0.08690780401229858,0.17377693951129913,0.156021848320961,0.03930027782917023,-0.08229941129684448,0.0688164010643959,-0.15936918556690216,-0.18568851053714752,0.08366163820028305,-0.1858225017786026,-0.06482300907373428,0.08869952708482742,-0.003766413778066635,0.14353257417678833,0.07005625218153,-0.1787625104188919,0.01425905991345644,0.03452577814459801,-0.0906308963894844,-0.03534923866391182,0.15433897078037262,-0.11562714725732803,-0.11075720191001892,0.023284226655960083,0.15615013241767883,-0.07541422545909882,-0.008199222385883331,0.1948564499616623,-0.19335992634296417,0.10038934648036957,-0.15224382281303406,-0.1846156120300293,-0.16489499807357788,-0.11241383105516434,-0.08036244660615921,0.04937877133488655,0.08266522735357285,-0.0013017974561080337,0.011499705724418163,0.1261323094367981,0.15379799902439117,-0.19865001738071442,-0.4544968605041504,-0.10610895603895187,0.6114394664764404,0.18295340240001678,0.2152680903673172,0.046245794743299484,0.1439371407032013,0.13058221340179443,-0.0946955531835556,0.02151092141866684,0.14803801476955414,-0.12777169048786163,-0.026871411129832268,-0.01661643758416176,-0.10818232595920563,0.02291816473007202,-0.056688979268074036,0.1209784522652626,-0.25121504068374634,0.146925151348114,0.3671944737434387,0.07667282968759537,0.14311015605926514,-0.008704086765646935,-0.091531902551651,-0.07147696614265442,-0.15406450629234314,0.016897523775696754,0.02329125814139843,-0.562587320804596,-0.0897943377494812,-0.3305984139442444,0.06433402746915817,-0.12808851897716522,0.06102743744850159,0.1944762021303177,0.0449959859251976,-0.10591176897287369,0.007776940707117319,-0.028800297528505325,-0.19593049585819244,0.1947953999042511,0.13572484254837036,-0.168026864528656,-0.10203332453966141,-0.14562669396400452,-0.07786557078361511,-0.011081604287028313,-0.0916866585612297,0.1338408887386322,0.012038092128932476,0.018224326893687248,-0.17934922873973846,0.17752297222614288,-0.19558219611644745,-0.09089461714029312,0.08313746005296707,-0.12244416773319244,0.040406517684459686,0.09478407353162766,0.09362795948982239,-0.0572284534573555,0.008766574785113335,0.0031526261009275913,-0.1979295313358307,-0.06434031575918198,-0.11819417774677277,0.14490541815757751,0.11659589409828186,-0.1310051828622818,-0.02247263863682747,-0.013997594825923443,-0.04870741814374924,0.18597249686717987,-0.15325582027435303,-0.10900517553091049,-0.1576615273952484,-0.0838005319237709,-0.10322564095258713,-0.16079680621623993,0.18420414626598358,-0.022450178861618042,0.12014742940664291,-0.10144679248332977,0.08322960138320923,-0.12338262796401978,-0.1803346872329712,0.12728285789489746,0.15295296907424927,-0.11735004931688309,-0.08652231097221375,-0.04199175536632538,0.011905177496373653,0.02149970270693302,0.08003824949264526,-0.17577260732650757,0.1873750388622284,0.12519899010658264,-0.09367163479328156,-0.1796773076057434,-0.006188859697431326,0.13953913748264313,-0.15316034853458405,-0.1530109941959381,-0.11352633684873581,-0.11399587988853455,-0.0887925997376442,-0.04524383321404457,-0.07225196063518524,-0.18838471174240112,-0.1055050641298294,-0.13371405005455017,-0.00906083919107914,0.19364561140537262,0.1087714359164238,-0.06527674943208694,0.07442905008792877,0.08598853647708893,0.09202264249324799,0.18498221039772034],[0.09346909075975418,-0.456582248210907,-0.11578717082738876,-0.2294088751077652,0.10158858448266983,0.044881898909807205,-0.08298053592443466,-0.8302279114723206,-0.45977452397346497,0.10113270580768585,0.11914154887199402,0.014805300161242485,0.2518129050731659,0.02769692987203598,-0.06535212695598602,0.1825961470603943,0.13266360759735107,0.11954473704099655,0.10371384024620056,0.11310810595750809,0.18750400841236115,0.0012270639417693019,0.020475149154663086,-0.8351436853408813,0.031836509704589844,0.04190249741077423,-0.1257108598947525,-0.16741086542606354,0.21629124879837036,0.12550707161426544,-0.07998548448085785,0.09935659170150757,0.09157351404428482,0.10401171445846558,0.06815513968467712,-0.11481683701276779,-0.19721060991287231,-0.06548674404621124,-0.12378308922052383,0.10215442627668381,0.14884807169437408,-0.059643637388944626,0.12243224680423737,-0.0832057073712349,0.14835898578166962,-0.16454127430915833,0.055583734065294266,0.059958841651678085,-0.07311432808637619,-0.004288838244974613,0.05318925529718399,0.009842568077147007,-0.17792871594429016,0.04524271562695503,-0.11857368052005768,0.055066682398319244,0.005823520477861166,0.08829052746295929,0.0757346898317337,-0.04435742273926735,-0.34579917788505554,0.05857560411095619,-0.13987235724925995,0.11286898702383041,0.11624489724636078,0.18587817251682281,0.10719961673021317,-0.11629027873277664,-0.17586040496826172,0.13050679862499237,0.0805329978466034,0.09080890566110611,-0.19633492827415466,-0.10938499122858047,-0.1200437992811203,0.021866727620363235,0.09640951454639435,0.11768984794616699,0.19256065785884857,-0.09552271664142609,0.12299706786870956,0.07739545404911041,-0.023571249097585678,-0.08501818031072617,-0.14360369741916656,-0.029321813955903053,-0.07314490526914597,-0.004096686374396086,0.17585982382297516,-0.029624562710523605,0.0951969176530838,0.15694938600063324,-0.15616606175899506,-0.10029183328151703,0.01142075750976801,-0.09198589622974396,0.024656787514686584,0.05734569579362869,0.15397486090660095,0.012722339481115341,0.03984474763274193,0.08929484337568283,0.07782004028558731,0.15276746451854706,-0.1363188922405243,0.05998632684350014,0.017009355127811432,0.030000340193510056,0.1580004245042801,0.1331709623336792,0.012245355173945427,0.14630067348480225,0.15718653798103333,0.08907687664031982,0.020063916221261024,-0.09241440147161484,0.027617713436484337,0.1981707066297531,-0.04397168010473251,0.048712871968746185,0.18283672630786896,-0.13004925847053528,-0.033049121499061584,-0.1302122324705124,-0.3143247663974762,-0.09649521857500076,-0.07886072248220444,-0.007465293165296316,-0.0024034841917455196,0.065130315721035,0.09851943701505661,0.12483453005552292,0.032315630465745926,-0.07804331183433533,-0.10032329708337784,-0.09022916853427887,0.1704879105091095,0.13003972172737122,-0.41481396555900574,-0.012221048586070538,0.12376344203948975,-0.057642173022031784,-0.14263507723808289,0.14198420941829681,-0.18149971961975098,-0.046772975474596024,-0.032276514917612076,-0.11176806688308716,0.02559216320514679,0.15868735313415527,-0.10925263166427612,-0.03325130045413971,0.057033393532037735,-0.05250980705022812,-0.43117377161979675,0.14620298147201538,-0.2778349220752716,-0.07796836644411087,-0.2200470268726349,0.025791110470891,-0.12362261861562729,0.07377353310585022,0.17880146205425262,0.1365092545747757,0.08012469112873077,0.29080966114997864,-0.05557173490524292,-0.30117884278297424,0.09466075152158737,0.061941251158714294,0.030379988253116608,-0.14815053343772888,-0.08675998449325562,-0.010861295275390148,0.21343755722045898,-0.04712687060236931,0.05362358316779137,-0.03833896294236183,0.13491545617580414,-0.0533750094473362,-0.03597818315029144,-0.4595542252063751,-0.07684110850095749,0.06143483519554138,0.0952734649181366,-0.021566132083535194,-0.12263913452625275,0.0050647142343223095,-0.11735723167657852,-0.1444341391324997,-0.0761890709400177,0.022758955135941505,0.029533211141824722,-0.15720419585704803,0.0702274888753891,-0.18265372514724731,-0.12931768596172333,0.1940413862466812,-0.03130875900387764,0.13188496232032776,-0.0805116668343544,-0.18547865748405457,0.09045515209436417,0.18842922151088715,0.0653960183262825,-0.09973149001598358,-0.19402413070201874,0.11341774463653564,-0.1503966897726059,-0.14415188133716583,-0.030201276764273643,-0.13658054172992706,-0.17251275479793549,-0.16718553006649017,0.18240989744663239,-0.02906610816717148,-0.17535974085330963,-0.06987208127975464,0.17559412121772766,-0.02511044591665268,-0.015703873708844185,0.011309271678328514,0.18378619849681854,-0.10906895250082016,-0.025398796424269676,0.08701743185520172,0.10075660049915314,-0.1803390234708786,0.19561105966567993,-0.005511257331818342,-0.07340040802955627,0.004746278747916222,0.13508614897727966,-0.06638121604919434,-0.06555824726819992,-0.1717662364244461,0.03264359384775162,-0.0803934708237648,-0.0004532024613581598,-0.033976346254348755,-0.0022476473823189735,-0.00321395811624825,-0.17904652655124664,0.17276190221309662,0.04066598787903786,-0.0929352417588234,-0.10303664952516556,-0.1176353320479393,-0.050611529499292374,-0.0814436823129654,-0.18929624557495117,0.11310398578643799,-0.11200866848230362,-0.06236431002616882,0.00621494697406888,-0.13721494376659393],[0.03378335386514664,-0.11285323649644852,0.16907082498073578,-0.007231081370264292,0.04929938539862633,0.14361625909805298,0.08437895774841309,-0.5753161907196045,-0.7409008741378784,